{"learner":{"attributes":{"scikit_learn":"{\"_estimator_type\": \"regressor\"}"},"feature_names":["ad_budget","num_leads","leads_answered","leads_not_answered","followup_1","followup_2","followup_3","followup_4","followup_5","not_closed","closed","calls_to_closed","calls_to_not_closed","customer_acquisition_cost"],"feature_types":["int","int","int","int","int","int","int","int","int","int","int","int","int","int"],"gradient_booster":{"model":{"cats":{"enc":[],"feature_segments":[],"sorted_idx":[]},"gbtree_model_param":{"num_parallel_tree":"1","num_trees":"300"},"iteration_indptr":[0,1,2,3,4,5,6,7,8,9,10,11,12,13,14,15,16,17,18,19,20,21,22,23,24,25,26,27,28,29,30,31,32,33,34,35,36,37,38,39,40,41,42,43,44,45,46,47,48,49,50,51,52,53,54,55,56,57,58,59,60,61,62,63,64,65,66,67,68,69,70,71,72,73,74,75,76,77,78,79,80,81,82,83,84,85,86,87,88,89,90,91,92,93,94,95,96,97,98,99,100,101,102,103,104,105,106,107,108,109,110,111,112,113,114,115,116,117,118,119,120,121,122,123,124,125,126,127,128,129,130,131,132,133,134,135,136,137,138,139,140,141,142,143,144,145,146,147,148,149,150,151,152,153,154,155,156,157,158,159,160,161,162,163,164,165,166,167,168,169,170,171,172,173,174,175,176,177,178,179,180,181,182,183,184,185,186,187,188,189,190,191,192,193,194,195,196,197,198,199,200,201,202,203,204,205,206,207,208,209,210,211,212,213,214,215,216,217,218,219,220,221,222,223,224,225,226,227,228,229,230,231,232,233,234,235,236,237,238,239,240,241,242,243,244,245,246,247,248,249,250,251,252,253,254,255,256,257,258,259,260,261,262,263,264,265,266,267,268,269,270,271,272,273,274,275,276,277,278,279,280,281,282,283,284,285,286,287,288,289,290,291,292,293,294,295,296,297,298,299,300],"tree_info":[0,0,0,0,0,0,0,0,0,0,0,0,0,0,0,0,0,0,0,0,0,0,0,0,0,0,0,0,0,0,0,0,0,0,0,0,0,0,0,0,0,0,0,0,0,0,0,0,0,0,0,0,0,0,0,0,0,0,0,0,0,0,0,0,0,0,0,0,0,0,0,0,0,0,0,0,0,0,0,0,0,0,0,0,0,0,0,0,0,0,0,0,0,0,0,0,0,0,0,0,0,0,0,0,0,0,0,0,0,0,0,0,0,0,0,0,0,0,0,0,0,0,0,0,0,0,0,0,0,0,0,0,0,0,0,0,0,0,0,0,0,0,0,0,0,0,0,0,0,0,0,0,0,0,0,0,0,0,0,0,0,0,0,0,0,0,0,0,0,0,0,0,0,0,0,0,0,0,0,0,0,0,0,0,0,0,0,0,0,0,0,0,0,0,0,0,0,0,0,0,0,0,0,0,0,0,0,0,0,0,0,0,0,0,0,0,0,0,0,0,0,0,0,0,0,0,0,0,0,0,0,0,0,0,0,0,0,0,0,0,0,0,0,0,0,0,0,0,0,0,0,0,0,0,0,0,0,0,0,0,0,0,0,0,0,0,0,0,0,0,0,0,0,0,0,0,0,0,0,0,0,0,0,0,0,0,0,0,0,0,0,0,0,0,0,0,0,0,0,0],"trees":[{"base_weights":[5.4574106E-2,1.0602243E1,-1.1383755E1,6.687414E-1,5.309651E0,-8.905668E0,-8.0837625E-1,5.40596E0,-7.112708E-1,-5.0670133E0,-1.0848071E1,9.568646E-2,2.7287015E-1,-9.822952E-2,5.1659822E-2,-1.6076152E-1,-2.6425445E-1,-4.498295E-1,-5.624092E-1],"categories":[],"categories_nodes":[],"categories_segments":[],"categories_sizes":[],"default_left":[0,0,0,0,0,0,0,0,0,0,0,0,0,0,0,0,0,0,0],"id":0,"left_children":[1,3,5,-1,7,9,-1,11,13,15,17,-1,-1,-1,-1,-1,-1,-1,-1],"loss_changes":[3.0379097E5,1.9152125E4,1.4176375E4,0E0,2.6594727E2,5.89509E3,0E0,6.95E1,1.952081E1,9.2041504E1,2.906914E2,0E0,0E0,0E0,0E0,0E0,0E0,0E0,0E0],"parents":[2147483647,0,0,1,1,2,2,4,4,5,5,7,7,8,8,9,9,10,10],"right_children":[2,4,6,-1,8,10,-1,12,14,16,18,-1,-1,-1,-1,-1,-1,-1,-1],"split_conditions":[4E0,3E0,6E0,6.687414E-1,1.5E1,5E0,-8.0837625E-1,1.1E1,2.5E3,1.4E3,1.3E1,9.568646E-2,2.7287015E-1,-9.822952E-2,5.1659822E-2,-1.6076152E-1,-2.6425445E-1,-4.498295E-1,-5.624092E-1],"split_indices":[11,11,11,0,8,11,0,4,13,13,6,0,0,0,0,0,0,0,0],"split_type":[0,0,0,0,0,0,0,0,0,0,0,0,0,0,0,0,0,0,0],"sum_hessian":[2.516E3,1.309E3,1.207E3,8.58E2,4.51E2,7.97E2,4.1E2,4.44E2,7E0,2.69E2,5.28E2,7E0,4.37E2,4E0,3E0,3E1,2.39E2,9.8E1,4.3E2],"tree_param":{"num_deleted":"0","num_feature":"14","num_nodes":"19","size_leaf_vector":"1"}},{"base_weights":[-1.5421386E-1,9.913944E0,-1.0902302E1,1.26463785E1,4.987151E0,-8.532118E0,-7.6732683E-1,6.326357E-1,1.8438803E-1,5.0801754E0,-9.502647E-1,-4.8783603E0,-1.0363598E1,2.7606267E-1,2.4188879E-1,-1.0715654E-1,9.704056E-3,-1.6322006E-1,-2.5158012E-1,-4.2440316E-1,-5.3803676E-1],"categories":[],"categories_nodes":[],"categories_segments":[],"categories_sizes":[],"default_left":[0,0,0,0,0,0,0,0,0,0,0,0,0,0,0,0,0,0,0,0,0],"id":1,"left_children":[1,3,5,7,9,11,-1,-1,-1,13,15,17,19,-1,-1,-1,-1,-1,-1,-1,-1],"loss_changes":[2.7161562E5,1.7383852E4,1.2656906E4,6.25E-1,2.6110547E2,5.2627188E3,0E0,0E0,0E0,2.2151367E1,1.1336351E1,4.961084E1,3.019375E2,0E0,0E0,0E0,0E0,0E0,0E0,0E0,0E0],"parents":[2147483647,0,0,1,1,2,2,3,3,4,4,5,5,9,9,10,10,11,11,12,12],"right_children":[2,4,6,8,10,12,-1,-1,-1,14,16,18,20,-1,-1,-1,-1,-1,-1,-1,-1],"split_conditions":[4E0,3E0,6E0,2.3E1,1.5E1,5E0,-7.6732683E-1,6.326357E-1,1.8438803E-1,1E3,2.5E3,1.4E3,5E1,2.7606267E-1,2.4188879E-1,-1.0715654E-1,9.704056E-3,-1.6322006E-1,-2.5158012E-1,-4.2440316E-1,-5.3803676E-1],"split_indices":[11,11,11,6,8,11,0,0,0,13,13,13,1,0,0,0,0,0,0,0,0],"split_type":[0,0,0,0,0,0,0,0,0,0,0,0,0,0,0,0,0,0,0,0,0],"sum_hessian":[2.508E3,1.295E3,1.213E3,8.32E2,4.63E2,7.93E2,4.2E2,8.31E2,1E0,4.56E2,7E0,2.66E2,5.27E2,1.54E2,3.02E2,3E0,4E0,2.5E1,2.41E2,9.6E1,4.31E2],"tree_param":{"num_deleted":"0","num_feature":"14","num_nodes":"21","size_leaf_vector":"1"}},{"base_weights":[-5.4295687E-3,9.577882E0,-1.0247783E1,1.2136247E1,4.7145047E0,-8.040079E0,-7.321838E-1,6.1145455E-1,5.207297E-1,4.829573E0,-3.9006042E-1,-4.566643E0,-9.825868E0,-2.6443735E-2,2.4274223E-1,8.1191204E-2,-6.741226E-2,-1.388588E-1,-2.3764868E-1,-4.112769E-1,-5.0860804E-1],"categories":[],"categories_nodes":[],"categories_segments":[],"categories_sizes":[],"default_left":[0,0,0,0,0,0,0,0,0,0,0,0,0,0,0,0,0,0,0,0,0],"id":2,"left_children":[1,3,5,7,9,11,-1,-1,-1,13,15,17,19,-1,-1,-1,-1,-1,-1,-1,-1],"loss_changes":[2.5098402E5,1.6379047E4,1.18774375E4,1.090625E1,2.7031445E2,5.072453E3,0E0,0E0,0E0,6.3097656E1,2.3415722E1,8.0828125E1,2.1780469E2,0E0,0E0,0E0,0E0,0E0,0E0,0E0,0E0],"parents":[2147483647,0,0,1,1,2,2,3,3,4,4,5,5,9,9,10,10,11,11,12,12],"right_children":[2,4,6,8,10,12,-1,-1,-1,14,16,18,20,-1,-1,-1,-1,-1,-1,-1,-1],"split_conditions":[4E0,3E0,6E0,1.6E3,4.1E1,5E0,-7.321838E-1,6.1145455E-1,5.207297E-1,1.4E1,5E0,1.9E1,1.2E1,-2.6443735E-2,2.4274223E-1,8.1191204E-2,-6.741226E-2,-1.388588E-1,-2.3764868E-1,-4.112769E-1,-5.0860804E-1],"split_indices":[11,11,11,13,2,11,0,0,0,2,10,3,7,0,0,0,0,0,0,0,0],"split_type":[0,0,0,0,0,0,0,0,0,0,0,0,0,0,0,0,0,0,0,0,0],"sum_hessian":[2.555E3,1.32E3,1.235E3,8.64E2,4.56E2,8.24E2,4.11E2,8.14E2,5E1,4.46E2,1E1,2.81E2,5.43E2,2E0,4.44E2,3E0,7E0,2.8E1,2.53E2,1.01E2,4.42E2],"tree_param":{"num_deleted":"0","num_feature":"14","num_nodes":"21","size_leaf_vector":"1"}},{"base_weights":[-1.1110664E-1,8.990844E0,-9.809454E0,1.1469583E1,4.558255E0,-7.637616E0,-6.931312E-1,5.7376915E-1,1.64492E-1,4.658904E0,-5.777424E-1,-4.2943487E0,-9.348237E0,2.3421685E-1,9.6627936E-2,6.339016E-2,-5.988021E-2,-1.3616888E-1,-2.234237E-1,-3.886342E-1,-4.844864E-1],"categories":[],"categories_nodes":[],"categories_segments":[],"categories_sizes":[],"default_left":[0,0,0,0,0,0,0,0,0,0,0,0,0,0,0,0,0,0,0,0,0],"id":3,"left_children":[1,3,5,7,9,11,-1,-1,-1,13,15,17,19,-1,-1,-1,-1,-1,-1,-1,-1],"loss_changes":[2.2536312E5,1.4417906E4,1.0774406E4,2.2890625E0,2.4771582E2,4.5751367E3,0E0,0E0,0E0,2.3191406E1,1.2958158E1,6.3055664E1,2.1146094E2,0E0,0E0,0E0,0E0,0E0,0E0,0E0,0E0],"parents":[2147483647,0,0,1,1,2,2,3,3,4,4,5,5,9,9,10,10,11,11,12,12],"right_children":[2,4,6,8,10,12,-1,-1,-1,14,16,18,20,-1,-1,-1,-1,-1,-1,-1,-1],"split_conditions":[4E0,3E0,6E0,2.3E1,1.5E1,5E0,-6.931312E-1,5.7376915E-1,1.64492E-1,6E3,5E0,1.4E3,9E0,2.3421685E-1,9.6627936E-2,6.339016E-2,-5.988021E-2,-1.3616888E-1,-2.234237E-1,-3.886342E-1,-4.844864E-1],"split_indices":[11,11,11,6,8,11,0,0,0,0,10,13,8,0,0,0,0,0,0,0,0],"split_type":[0,0,0,0,0,0,0,0,0,0,0,0,0,0,0,0,0,0,0,0,0],"sum_hessian":[2.551E3,1.316E3,1.235E3,8.43E2,4.73E2,8.06E2,4.29E2,8.42E2,1E0,4.64E2,9E0,2.74E2,5.32E2,4.59E2,5E0,2E0,7E0,2.9E1,2.45E2,9.9E1,4.33E2],"tree_param":{"num_deleted":"0","num_feature":"14","num_nodes":"21","size_leaf_vector":"1"}},{"base_weights":[-1.8060939E-1,8.504049E0,-9.427236E0,1.0847243E1,4.2491817E0,-4.1116023E0,-1.0908715E1,5.464412E-1,9.25988E0,4.3431444E0,-1.0359293E0,-1.9884543E0,-4.3578124E0,-8.982346E0,-6.595594E-1,4.7301897E-1,1.5494627E-1,3.905846E-2,2.190244E-1,-8.051333E-2,3.247503E-2,-1.8184905E-1,-3.4369104E-2,-2.2830634E-1,-1.846728E-1,-3.932105E-1,-4.6128932E-1],"categories":[],"categories_nodes":[],"categories_segments":[],"categories_sizes":[],"default_left":[0,0,0,0,0,0,0,0,0,0,0,0,0,0,0,0,0,0,0,0,0,0,0,0,0,0,0],"id":4,"left_children":[1,3,5,7,9,11,13,-1,15,17,19,21,23,25,-1,-1,-1,-1,-1,-1,-1,-1,-1,-1,-1,-1,-1],"loss_changes":[2.0493512E5,1.3074398E4,9.688656E3,8.6171875E0,2.3740625E2,1.3299707E2,4.1288984E3,0E0,2.9976074E1,5.7898438E1,9.7579155E0,6.184559E1,1.6626953E1,7.089844E1,0E0,0E0,0E0,0E0,0E0,0E0,0E0,0E0,0E0,0E0,0E0,0E0,0E0],"parents":[2147483647,0,0,1,1,2,2,3,3,4,4,5,5,6,6,8,8,9,9,10,10,11,11,12,12,13,13],"right_children":[2,4,6,8,10,12,14,-1,16,18,20,22,24,26,-1,-1,-1,-1,-1,-1,-1,-1,-1,-1,-1,-1,-1],"split_conditions":[4E0,3E0,5E0,1.6E3,4.1E1,1.4E3,6E0,5.464412E-1,5.5E1,1.1E1,3.5E3,2E3,3E3,9E0,-6.595594E-1,4.7301897E-1,1.5494627E-1,3.905846E-2,2.190244E-1,-8.051333E-2,3.247503E-2,-1.8184905E-1,-3.4369104E-2,-2.2830634E-1,-1.846728E-1,-3.932105E-1,-4.6128932E-1],"split_indices":[11,11,11,13,2,13,11,0,1,4,13,0,13,8,0,0,0,0,0,0,0,0,0,0,0,0,0],"split_type":[0,0,0,0,0,0,0,0,0,0,0,0,0,0,0,0,0,0,0,0,0,0,0,0,0,0,0],"sum_hessian":[2.55E3,1.315E3,1.235E3,8.47E2,4.68E2,2.7E2,9.65E2,8E2,4.7E1,4.6E2,8E0,2.9E1,2.41E2,5.26E2,4.39E2,4.5E1,2E0,5E0,4.55E2,6E0,2E0,1.2E1,1.7E1,1.79E2,6.2E1,1E2,4.26E2],"tree_param":{"num_deleted":"0","num_feature":"14","num_nodes":"27","size_leaf_vector":"1"}},{"base_weights":[-7.4014865E-2,8.19228E0,-8.840417E0,1.0392283E1,4.070436E0,-6.882253E0,-6.270454E-1,5.1988214E-1,1.4671865E-1,4.1500583E0,-1.5955039E0,-4.044428E0,-8.438802E0,6.57053E-3,2.0930238E-1,-1.6356368E-1,-3.8549837E-2,-1.14428714E-1,-2.1130577E-1,-3.4675536E-1,-4.363455E-1],"categories":[],"categories_nodes":[],"categories_segments":[],"categories_sizes":[],"default_left":[0,0,0,0,0,0,0,0,0,0,0,0,0,0,0,0,0,0,0,0,0],"id":5,"left_children":[1,3,5,7,9,11,-1,-1,-1,13,15,17,19,-1,-1,-1,-1,-1,-1,-1,-1],"loss_changes":[1.8261342E5,1.1718992E4,8.775758E3,3.265625E0,2.1098535E2,3.5084766E3,0E0,0E0,0E0,6.409863E1,7.1496487E0,8.156738E1,1.6345703E2,0E0,0E0,0E0,0E0,0E0,0E0,0E0,0E0],"parents":[2147483647,0,0,1,1,2,2,3,3,4,4,5,5,9,9,10,10,11,11,12,12],"right_children":[2,4,6,8,10,12,-1,-1,-1,14,16,18,20,-1,-1,-1,-1,-1,-1,-1,-1],"split_conditions":[4E0,3E0,6E0,2.3E1,1.2E4,5E0,-6.270454E-1,5.1988214E-1,1.4671865E-1,6E0,4.7E1,1.4E3,9E0,6.57053E-3,2.0930238E-1,-1.6356368E-1,-3.8549837E-2,-1.14428714E-1,-2.1130577E-1,-3.4675536E-1,-4.363455E-1],"split_indices":[11,11,11,6,0,11,0,0,0,7,2,13,6,0,0,0,0,0,0,0,0],"split_type":[0,0,0,0,0,0,0,0,0,0,0,0,0,0,0,0,0,0,0,0,0],"sum_hessian":[2.518E3,1.296E3,1.222E3,8.44E2,4.52E2,8.01E2,4.21E2,8.43E2,1E0,4.46E2,6E0,2.85E2,5.16E2,4E0,4.42E2,1E0,5E0,2.8E1,2.57E2,8.7E1,4.29E2],"tree_param":{"num_deleted":"0","num_feature":"14","num_nodes":"21","size_leaf_vector":"1"}},{"base_weights":[1.02972984E-1,7.7695E0,-8.382768E0,9.890653E0,3.8075926E0,-3.6257324E0,-9.78948E0,4.950883E-1,1.7022276E-1,3.9231951E0,8.5680895E-2,-1.8272637E0,-3.8718765E0,-8.060546E0,-1.1890604E1,2.0237638E-2,1.9689995E-1,7.572237E-2,-5.17551E-2,-1.69498E-1,2.4116416E-2,-7.497951E-2,-1.9630322E-1,-3.331897E-1,-4.1680107E-1,-6.513681E-1,-5.770151E-1],"categories":[],"categories_nodes":[],"categories_segments":[],"categories_sizes":[],"default_left":[0,0,0,0,0,0,0,0,0,0,0,0,0,0,0,0,0,0,0,0,0,0,0,0,0,0,0],"id":6,"left_children":[1,3,5,7,9,11,13,-1,-1,15,17,19,21,23,25,-1,-1,-1,-1,-1,-1,-1,-1,-1,-1,-1,-1],"loss_changes":[1.6420181E5,1.1105797E4,7.981258E3,2.85E1,1.9930566E2,1.146626E2,3.2607734E3,0E0,0E0,2.1845215E1,2.5587662E1,1.2795674E2,2.5093018E1,1.406836E2,1.49140625E1,0E0,0E0,0E0,0E0,0E0,0E0,0E0,0E0,0E0,0E0,0E0,0E0],"parents":[2147483647,0,0,1,1,2,2,3,3,4,4,5,5,6,6,9,9,10,10,11,11,12,12,13,13,14,14],"right_children":[2,4,6,8,10,12,14,-1,-1,16,18,20,22,24,26,-1,-1,-1,-1,-1,-1,-1,-1,-1,-1,-1,-1],"split_conditions":[4E0,3E0,5E0,9E0,6E3,5.5E1,6E0,4.950883E-1,1.7022276E-1,2E0,5E0,3E0,3E0,1.7E1,1E3,2.0237638E-2,1.9689995E-1,7.572237E-2,-5.17551E-2,-1.69498E-1,2.4116416E-2,-7.497951E-2,-1.9630322E-1,-3.331897E-1,-4.1680107E-1,-6.513681E-1,-5.770151E-1],"split_indices":[11,11,11,9,0,1,11,0,0,12,10,10,10,5,0,0,0,0,0,0,0,0,0,0,0,0,0],"split_type":[0,0,0,0,0,0,0,0,0,0,0,0,0,0,0,0,0,0,0,0,0,0,0,0,0,0,0],"sum_hessian":[2.522E3,1.325E3,1.197E3,8.62E2,4.63E2,2.74E2,9.23E2,8.6E2,2E0,4.49E2,1.4E1,3.4E1,2.4E2,5.09E2,4.14E2,2E0,4.47E2,6E0,8E0,2E1,1.4E1,6E0,2.34E2,8.8E1,4.21E2,8.9E1,3.25E2],"tree_param":{"num_deleted":"0","num_feature":"14","num_nodes":"27","size_leaf_vector":"1"}},{"base_weights":[9.0926655E-2,-9.684008E0,2.2568126E0,-9.790232E0,4.873005E0,7.4374385E0,-6.9508195E0,-5.5268043E-1,-4.6764907E-1,-2.7165902E-1,8.9478904E-1,-9.359036E-2,7.445858E0,-7.015642E0,-4.6024566E0,3.684328E-1,4.3187013E-1,-4.1376922E-1,-3.4591275E-1,2.494452E-2,-2.6963016E-1],"categories":[],"categories_nodes":[],"categories_segments":[],"categories_sizes":[],"default_left":[0,0,0,0,0,0,0,0,0,0,0,0,0,0,0,0,0,0,0,0,0],"id":7,"left_children":[1,3,5,7,9,11,13,-1,-1,-1,-1,-1,15,17,19,-1,-1,-1,-1,-1,-1],"loss_changes":[5.3691336E4,7.590039E2,9.907959E4,1.490664E2,6.3409155E2,1.1810156E2,8.1578125E1,0E0,0E0,0E0,0E0,0E0,5.8507812E1,3.1816406E1,9.539899E1,0E0,0E0,0E0,0E0,0E0,0E0],"parents":[2147483647,0,0,1,1,2,2,3,3,4,4,5,5,6,6,12,12,13,13,14,14],"right_children":[2,4,6,8,10,12,14,-1,-1,-1,-1,-1,16,18,20,-1,-1,-1,-1,-1,-1],"split_conditions":[2E3,1.4E1,6E3,1E3,2.7E1,5E0,5.9E1,-5.5268043E-1,-4.6764907E-1,-2.7165902E-1,8.9478904E-1,-9.359036E-2,6E0,2.1E1,5E0,3.684328E-1,4.3187013E-1,-4.1376922E-1,-3.4591275E-1,2.494452E-2,-2.6963016E-1],"split_indices":[0,3,0,0,1,7,3,0,0,0,0,0,12,3,10,0,0,0,0,0,0],"split_type":[0,0,0,0,0,0,0,0,0,0,0,0,0,0,0,0,0,0,0,0,0],"sum_hessian":[2.534E3,4.59E2,2.075E3,4.56E2,3E0,1.328E3,7.47E2,1.11E2,3.45E2,2E0,1E0,1E0,1.327E3,7.25E2,2.2E1,1.253E3,7.4E1,4.6E1,6.79E2,3E0,1.9E1],"tree_param":{"num_deleted":"0","num_feature":"14","num_nodes":"21","size_leaf_vector":"1"}},{"base_weights":[3.5759236E-3,6.9869637E0,-7.6597157E0,8.948872E0,3.3060133E0,-3.2793345E0,-8.917744E0,8.959845E0,2.1707092E-1,3.3669763E0,-1.5011512E-1,-2.2075822E0,-3.393275E0,-7.3511267E0,-1.0851927E1,4.4821104E-1,1.2958427E-1,2.8081376E-2,1.7079091E-1,-8.892495E-2,2.8460434E-2,-1.9090031E-1,1.9600933E-2,-1.7444645E-1,-1.2476404E-1,-3.1174305E-1,-3.795332E-1,-5.276379E-1,-6.052046E-1],"categories":[],"categories_nodes":[],"categories_segments":[],"categories_sizes":[],"default_left":[0,0,0,0,0,0,0,0,0,0,0,0,0,0,0,0,0,0,0,0,0,0,0,0,0,0,0,0,0],"id":8,"left_children":[1,3,5,7,9,11,13,15,-1,17,19,21,23,25,27,-1,-1,-1,-1,-1,-1,-1,-1,-1,-1,-1,-1,-1,-1],"loss_changes":[1.3603702E5,9.575254E3,6.6496484E3,4.9375E0,9.826807E1,2.572461E1,2.7715625E3,8.4375E-1,0E0,6.05625E1,1.1554355E1,1.2290405E2,1.2252686E1,9.251758E1,2.9226562E1,0E0,0E0,0E0,0E0,0E0,0E0,0E0,0E0,0E0,0E0,0E0,0E0,0E0,0E0],"parents":[2147483647,0,0,1,1,2,2,3,3,4,4,5,5,6,6,7,7,9,9,10,10,11,11,12,12,13,13,14,14],"right_children":[2,4,6,8,10,12,14,16,-1,18,20,22,24,26,28,-1,-1,-1,-1,-1,-1,-1,-1,-1,-1,-1,-1,-1,-1],"split_conditions":[4E0,3E0,5E0,2.3E1,1.5E1,5.4E1,6E0,2.3E1,2.1707092E-1,6E0,4.7E1,3E0,1.05E2,5E1,9E0,4.4821104E-1,1.2958427E-1,2.8081376E-2,1.7079091E-1,-8.892495E-2,2.8460434E-2,-1.9090031E-1,1.9600933E-2,-1.7444645E-1,-1.2476404E-1,-3.1174305E-1,-3.795332E-1,-5.276379E-1,-6.052046E-1],"split_indices":[11,11,11,3,8,1,11,6,0,7,2,10,1,1,6,0,0,0,0,0,0,0,0,0,0,0,0,0,0],"split_type":[0,0,0,0,0,0,0,0,0,0,0,0,0,0,0,0,0,0,0,0,0,0,0,0,0,0,0,0,0],"sum_hessian":[2.54E3,1.329E3,1.211E3,8.66E2,4.63E2,2.71E2,9.4E2,8.63E2,3E0,4.55E2,8E0,2.8E1,2.43E2,5.22E2,4.18E2,8.62E2,1E0,8E0,4.47E2,2E0,6E0,1.7E1,1.1E1,2.17E2,2.6E1,9.7E1,4.25E2,3.45E2,7.3E1],"tree_param":{"num_deleted":"0","num_feature":"14","num_nodes":"29","size_leaf_vector":"1"}},{"base_weights":[-3.1401387E-3,-8.913973E0,2.0387452E0,-5.06162E-1,-4.249684E-1,6.704988E0,-6.17256E0,-9.195266E-2,6.712981E0,-6.730748E0,-5.978088E0,3.265911E-1,3.5547924E-1,-3.3815205E-1,-2.1337366E-2,-1.3239893E-1,-2.998694E-1],"categories":[],"categories_nodes":[],"categories_segments":[],"categories_sizes":[],"default_left":[0,0,0,0,0,0,0,0,0,0,0,0,0,0,0,0,0],"id":9,"left_children":[1,3,5,-1,-1,7,9,-1,11,13,15,-1,-1,-1,-1,-1,-1],"loss_changes":[4.5578195E4,1.4810547E2,7.812929E4,0E0,0E0,1.01125E2,3.998633E1,0E0,4.689453E1,3.4368164E1,1.9916016E1,0E0,0E0,0E0,0E0,0E0,0E0],"parents":[2147483647,0,0,1,1,2,2,5,5,6,6,8,8,9,9,10,10],"right_children":[2,4,6,-1,-1,8,10,-1,12,14,16,-1,-1,-1,-1,-1,-1],"split_conditions":[2E3,1E3,6E3,-5.06162E-1,-4.249684E-1,5E0,6.3E1,-9.195266E-2,5E0,1.1E1,1E1,3.265911E-1,3.5547924E-1,-3.3815205E-1,-2.1337366E-2,-1.3239893E-1,-2.998694E-1],"split_indices":[0,0,0,0,0,7,1,0,12,9,8,0,0,0,0,0,0],"split_type":[0,0,0,0,0,0,0,0,0,0,0,0,0,0,0,0,0],"sum_hessian":[2.503E3,4.66E2,2.037E3,1.13E2,3.53E2,1.299E3,7.38E2,1E0,1.298E3,1.82E2,5.56E2,9.03E2,3.95E2,1.81E2,1E0,4E0,5.52E2],"tree_param":{"num_deleted":"0","num_feature":"14","num_nodes":"17","size_leaf_vector":"1"}},{"base_weights":[6.632057E-2,6.402463E0,-6.8713093E0,8.238524E0,2.9256754E0,-5.2817945E0,-9.869084E0,8.311255E0,6.865126E0,2.9798687E0,-9.761323E-1,-2.9009373E0,-6.526584E0,-9.5333E0,-5.620709E-1,2.4363486E-1,4.163261E-1,3.5560253E-1,1.1546059E-1,1.53962E-1,1.1345662E-1,-1.3981305E-1,-1.0336701E-2,-9.701895E-2,-1.5266947E-1,-2.6508716E-1,-3.389924E-1,-5.303975E-1,-4.5781285E-1],"categories":[],"categories_nodes":[],"categories_segments":[],"categories_sizes":[],"default_left":[0,0,0,0,0,0,0,0,0,0,0,0,0,0,0,0,0,0,0,0,0,0,0,0,0,0,0,0,0],"id":10,"left_children":[1,3,5,7,9,11,13,15,17,19,21,23,25,27,-1,-1,-1,-1,-1,-1,-1,-1,-1,-1,-1,-1,-1,-1,-1],"loss_changes":[1.1059789E5,8.37032E3,5.6706484E3,2.8851562E1,9.9331055E1,2.3134688E3,8.407031E1,2.0546875E0,3.869995E1,2.4794922E1,9.224744E0,3.390674E1,1.2412305E2,4.063672E1,0E0,0E0,0E0,0E0,0E0,0E0,0E0,0E0,0E0,0E0,0E0,0E0,0E0,0E0,0E0],"parents":[2147483647,0,0,1,1,2,2,3,3,4,4,5,5,6,6,7,7,8,8,9,9,10,10,11,11,12,12,13,13],"right_children":[2,4,6,8,10,12,14,16,18,20,22,24,26,28,-1,-1,-1,-1,-1,-1,-1,-1,-1,-1,-1,-1,-1,-1,-1],"split_conditions":[4E0,3E0,6E0,1.6E3,1.2E4,5E0,9E0,6E2,5.5E1,5E0,8.8E1,5.6E1,1.3E1,1E3,-5.620709E-1,2.4363486E-1,4.163261E-1,3.5560253E-1,1.1546059E-1,1.53962E-1,1.1345662E-1,-1.3981305E-1,-1.0336701E-2,-9.701895E-2,-1.5266947E-1,-2.6508716E-1,-3.389924E-1,-5.303975E-1,-4.5781285E-1],"split_indices":[11,11,11,13,0,11,6,13,1,10,1,1,6,0,0,0,0,0,0,0,0,0,0,0,0,0,0,0,0],"split_type":[0,0,0,0,0,0,0,0,0,0,0,0,0,0,0,0,0,0,0,0,0,0,0,0,0,0,0,0,0],"sum_hessian":[2.514E3,1.314E3,1.2E3,8.59E2,4.55E2,7.86E2,4.14E2,8.11E2,4.8E1,4.49E2,6E0,2.71E2,5.15E2,3.39E2,7.5E1,5E0,8.06E2,4.5E1,3E0,3.91E2,5.8E1,1E0,5E0,3.9E1,2.32E2,9.2E1,4.23E2,8.1E1,2.58E2],"tree_param":{"num_deleted":"0","num_feature":"14","num_nodes":"29","size_leaf_vector":"1"}},{"base_weights":[3.4047298E-2,6.0140977E0,-6.5295725E0,7.7392592E0,2.688146E0,-2.7207887E0,-7.654855E0,7.8184E0,6.377751E0,2.7363803E0,-7.621942E-1,-1.7770605E0,-2.9025984E0,-6.2567477E0,-9.380515E0,9.788959E-2,3.915212E-1,3.2464653E-1,1.1468891E-1,-9.350286E-2,1.3754836E-1,-1.3631773E-1,9.779136E-4,-1.15937434E-1,-4.979911E-2,-1.5471114E-1,-1.16827086E-1,-2.4199323E-1,-3.27506E-1,-4.5606515E-1,-5.335843E-1],"categories":[],"categories_nodes":[],"categories_segments":[],"categories_sizes":[],"default_left":[0,0,0,0,0,0,0,0,0,0,0,0,0,0,0,0,0,0,0,0,0,0,0,0,0,0,0,0,0,0,0],"id":11,"left_children":[1,3,5,7,9,11,13,15,17,19,21,23,25,27,29,-1,-1,-1,-1,-1,-1,-1,-1,-1,-1,-1,-1,-1,-1,-1,-1],"loss_changes":[9.871573E4,7.5301445E3,5.118035E3,4.3445312E1,7.714331E1,4.2026123E1,2.1730117E3,4.2039062E1,1.00373535E1,3.504492E1,1.0801735E1,1.757631E1,1.7609985E1,1.8195703E2,4.055078E1,0E0,0E0,0E0,0E0,0E0,0E0,0E0,0E0,0E0,0E0,0E0,0E0,0E0,0E0,0E0,0E0],"parents":[2147483647,0,0,1,1,2,2,3,3,4,4,5,5,6,6,7,7,8,8,9,9,10,10,11,11,12,12,13,13,14,14],"right_children":[2,4,6,8,10,12,14,16,18,20,22,24,26,28,30,-1,-1,-1,-1,-1,-1,-1,-1,-1,-1,-1,-1,-1,-1,-1,-1],"split_conditions":[4E0,3E0,5E0,1.6E3,3.3E1,2.2E1,6E0,6E0,2.1E1,6E0,4.7E1,2.6E1,3E3,1.3E1,2.8E1,9.788959E-2,3.915212E-1,3.2464653E-1,1.1468891E-1,-9.350286E-2,1.3754836E-1,-1.3631773E-1,9.779136E-4,-1.15937434E-1,-4.979911E-2,-1.5471114E-1,-1.16827086E-1,-2.4199323E-1,-3.27506E-1,-4.5606515E-1,-5.335843E-1],"split_indices":[11,11,11,13,3,3,11,7,3,6,2,4,13,6,4,0,0,0,0,0,0,0,0,0,0,0,0,0,0,0,0],"split_type":[0,0,0,0,0,0,0,0,0,0,0,0,0,0,0,0,0,0,0,0,0,0,0,0,0,0,0,0,0,0,0],"sum_hessian":[2.513E3,1.315E3,1.198E3,8.65E2,4.5E2,2.74E2,9.24E2,8.13E2,5.2E1,4.44E2,6E0,4.6E1,2.28E2,5.13E2,4.11E2,2E0,8.11E2,5E1,2E0,1E0,4.43E2,1E0,5E0,2.6E1,2E1,1.67E2,6.1E1,9.1E1,4.22E2,3.49E2,6.2E1],"tree_param":{"num_deleted":"0","num_feature":"14","num_nodes":"31","size_leaf_vector":"1"}},{"base_weights":[8.873818E-2,5.6805935E0,-6.1512537E0,7.4065933E0,2.4720182E0,-2.5354204E0,-7.264988E0,3.5685086E0,7.420107E0,2.5187771E0,-5.606897E-1,-1.3199666E0,-2.825618E0,-5.938489E0,-8.98454E0,3.0446434E-2,2.0780857E-1,3.8382974E-1,3.5476765E-1,1.4982066E-1,1.1479353E-1,-1.3290977E-1,5.9348107E-3,7.9349E-2,-7.001076E-2,-1.5311103E-1,-1.07491374E-1,-2.333289E-1,-3.1010556E-1,-4.351215E-1,-5.1523036E-1],"categories":[],"categories_nodes":[],"categories_segments":[],"categories_sizes":[],"default_left":[0,0,0,0,0,0,0,0,0,0,0,0,0,0,0,0,0,0,0,0,0,0,0,0,0,0,0,0,0,0,0],"id":12,"left_children":[1,3,5,7,9,11,13,15,17,19,21,23,25,27,29,-1,-1,-1,-1,-1,-1,-1,-1,-1,-1,-1,-1,-1,-1,-1,-1],"loss_changes":[8.91869E4,7.44691E3,4.846293E3,1.8957031E1,6.848657E1,9.71488E1,2.0519922E3,6.1653595E0,1.8164062E1,4.2734863E1,1.1715645E1,1.5518997E1,3.019226E1,1.4675586E2,5.928711E1,0E0,0E0,0E0,0E0,0E0,0E0,0E0,0E0,0E0,0E0,0E0,0E0,0E0,0E0,0E0,0E0],"parents":[2147483647,0,0,1,1,2,2,3,3,4,4,5,5,6,6,7,7,8,8,9,9,10,10,11,11,12,12,13,13,14,14],"right_children":[2,4,6,8,10,12,14,16,18,20,22,24,26,28,30,-1,-1,-1,-1,-1,-1,-1,-1,-1,-1,-1,-1,-1,-1,-1,-1],"split_conditions":[4E0,3E0,5E0,6E2,1.2E4,2.3E1,6E0,9E0,2.7E1,1E3,8.8E1,6.25E2,3E3,5E1,2.8E1,3.0446434E-2,2.0780857E-1,3.8382974E-1,3.5476765E-1,1.4982066E-1,1.1479353E-1,-1.3290977E-1,5.9348107E-3,7.9349E-2,-7.001076E-2,-1.5311103E-1,-1.07491374E-1,-2.333289E-1,-3.1010556E-1,-4.351215E-1,-5.1523036E-1],"split_indices":[11,11,11,13,0,3,11,6,2,13,1,13,13,1,4,0,0,0,0,0,0,0,0,0,0,0,0,0,0,0,0],"split_type":[0,0,0,0,0,0,0,0,0,0,0,0,0,0,0,0,0,0,0,0,0,0,0,0,0,0,0,0,0,0,0],"sum_hessian":[2.554E3,1.347E3,1.207E3,8.75E2,4.72E2,2.85E2,9.22E2,4E0,8.71E2,4.65E2,7E0,5.6E1,2.29E2,5.23E2,3.99E2,1E0,3E0,4.74E2,3.97E2,1.44E2,3.21E2,1E0,6E0,1E0,5.5E1,1.67E2,6.2E1,9.3E1,4.3E2,3.35E2,6.4E1],"tree_param":{"num_deleted":"0","num_feature":"14","num_nodes":"31","size_leaf_vector":"1"}},{"base_weights":[7.542874E-3,5.443337E0,-5.811184E0,7.0564957E0,2.4050777E0,-4.4496837E0,-8.510223E0,7.1149487E0,5.3707147E0,2.4519293E0,-5.485277E-1,-2.329761E0,-5.562352E0,-8.254305E0,-4.776754E-1,2.1987753E-1,3.5713455E-1,2.7226788E-1,7.455368E-2,6.829253E-2,1.2769058E-1,-1.2958704E-1,5.6804246E-3,-5.64613E-2,-1.23067416E-1,-2.175585E-1,-2.9091552E-1,-4.662826E-1,-3.940903E-1],"categories":[],"categories_nodes":[],"categories_segments":[],"categories_sizes":[],"default_left":[0,0,0,0,0,0,0,0,0,0,0,0,0,0,0,0,0,0,0,0,0,0,0,0,0,0,0,0,0],"id":13,"left_children":[1,3,5,7,9,11,13,15,17,19,21,23,25,27,-1,-1,-1,-1,-1,-1,-1,-1,-1,-1,-1,-1,-1,-1,-1],"loss_changes":[8.087638E4,6.46241E3,4.5004414E3,4.682422E1,6.5000244E1,1.9283105E3,3.141211E1,3.1238281E1,1.4369507E0,4.6637207E1,1.1117525E1,4.2243286E1,1.417793E2,6.1783203E1,0E0,0E0,0E0,0E0,0E0,0E0,0E0,0E0,0E0,0E0,0E0,0E0,0E0,0E0,0E0],"parents":[2147483647,0,0,1,1,2,2,3,3,4,4,5,5,6,6,7,7,8,8,9,9,10,10,11,11,12,12,13,13],"right_children":[2,4,6,8,10,12,14,16,18,20,22,24,26,28,-1,-1,-1,-1,-1,-1,-1,-1,-1,-1,-1,-1,-1,-1,-1],"split_conditions":[4E0,3E0,6E0,1.714E3,1.2E4,5E0,5E1,2.7E1,8E0,8E0,8.8E1,1.4E3,1.3E1,1E3,-4.776754E-1,2.1987753E-1,3.5713455E-1,2.7226788E-1,7.455368E-2,6.829253E-2,1.2769058E-1,-1.2958704E-1,5.6804246E-3,-5.64613E-2,-1.23067416E-1,-2.175585E-1,-2.9091552E-1,-4.662826E-1,-3.940903E-1],"split_indices":[11,11,11,13,0,11,1,1,8,6,1,13,6,0,0,0,0,0,0,0,0,0,0,0,0,0,0,0,0],"split_type":[0,0,0,0,0,0,0,0,0,0,0,0,0,0,0,0,0,0,0,0,0,0,0,0,0,0,0,0,0],"sum_hessian":[2.555E3,1.321E3,1.234E3,8.62E2,4.59E2,8.22E2,4.12E2,8.3E2,3.2E1,4.52E2,7E0,2.84E2,5.38E2,3.38E2,7.4E1,1E1,8.2E2,3.1E1,1E0,4E1,4.12E2,1E0,6E0,2.9E1,2.55E2,9.7E1,4.41E2,8.1E1,2.57E2],"tree_param":{"num_deleted":"0","num_feature":"14","num_nodes":"29","size_leaf_vector":"1"}},{"base_weights":[-3.039007E-2,5.166303E0,-5.574902E0,6.705688E0,2.3208995E0,-4.2629185E0,-8.071831E0,6.948536E0,6.3878274E0,2.3588605E0,-9.8259765E-1,-2.3243148E0,-5.2786927E0,-7.801862E0,-4.6558958E-1,3.3729953E-1,3.843854E-1,3.2036385E-1,1.469142E-1,-9.5742464E-2,1.186157E-1,5.0321866E-2,-7.9084605E-2,-5.937913E-2,-1.2274637E-1,-1.834142E-1,-2.692148E-1,-4.3726164E-1,-3.7249E-1],"categories":[],"categories_nodes":[],"categories_segments":[],"categories_sizes":[],"default_left":[0,0,0,0,0,0,0,0,0,0,0,0,0,0,0,0,0,0,0,0,0,0,0,0,0,0,0,0,0],"id":14,"left_children":[1,3,5,7,9,11,13,15,17,19,21,23,25,27,-1,-1,-1,-1,-1,-1,-1,-1,-1,-1,-1,-1,-1,-1,-1],"loss_changes":[7.384804E4,5.7794062E3,4.027746E3,2.184375E1,6.0756348E1,1.5926152E3,6.995703E1,1.9251953E1,6.9365234E0,3.1048096E1,8.741592E0,3.8953613E1,7.106348E1,5.3085938E1,0E0,0E0,0E0,0E0,0E0,0E0,0E0,0E0,0E0,0E0,0E0,0E0,0E0,0E0,0E0],"parents":[2147483647,0,0,1,1,2,2,3,3,4,4,5,5,6,6,7,7,8,8,9,9,10,10,11,11,12,12,13,13],"right_children":[2,4,6,8,10,12,14,16,18,20,22,24,26,28,-1,-1,-1,-1,-1,-1,-1,-1,-1,-1,-1,-1,-1,-1,-1],"split_conditions":[4E0,3E0,6E0,2.7E1,1.2E4,5E0,5E1,3.7E1,2.3E1,5E0,5E0,1.4E3,8E2,1E3,-4.6558958E-1,3.3729953E-1,3.843854E-1,3.2036385E-1,1.469142E-1,-9.5742464E-2,1.186157E-1,5.0321866E-2,-7.9084605E-2,-5.937913E-2,-1.2274637E-1,-1.834142E-1,-2.692148E-1,-4.3726164E-1,-3.7249E-1],"split_indices":[11,11,11,2,0,11,1,1,3,7,10,13,13,0,0,0,0,0,0,0,0,0,0,0,0,0,0,0,0],"split_type":[0,0,0,0,0,0,0,0,0,0,0,0,0,0,0,0,0,0,0,0,0,0,0,0,0,0,0,0,0],"sum_hessian":[2.561E3,1.322E3,1.239E3,8.57E2,4.65E2,8.14E2,4.25E2,4.74E2,3.83E2,4.6E2,5E0,2.81E2,5.33E2,3.55E2,7E1,3.8E2,9.4E1,3.8E2,3E0,1E0,4.59E2,1E0,4E0,3E1,2.51E2,3.5E1,4.98E2,9E1,2.65E2],"tree_param":{"num_deleted":"0","num_feature":"14","num_nodes":"29","size_leaf_vector":"1"}},{"base_weights":[4.346247E-2,4.9903474E0,-5.2927213E0,6.4130716E0,2.2381423E0,-2.1320238E0,-6.271571E0,6.471577E0,5.3276615E0,2.2888737E0,6.143383E-1,-1.1499122E0,-2.2666936E0,-5.08265E0,-7.7059903E0,2.3499262E-1,3.251656E-1,2.7480665E-1,1.0081048E-1,1.0360386E-1,1.3862322E-1,4.64396E-2,-4.7653675E-2,-1.0553882E-1,2.0003675E-2,-1.2088519E-1,-8.511823E-2,-1.9246715E-1,-2.6718193E-1,-3.734475E-1,-4.3739757E-1],"categories":[],"categories_nodes":[],"categories_segments":[],"categories_sizes":[],"default_left":[0,0,0,0,0,0,0,0,0,0,0,0,0,0,0,0,0,0,0,0,0,0,0,0,0,0,0,0,0,0,0],"id":15,"left_children":[1,3,5,7,9,11,13,15,17,19,21,23,25,27,29,-1,-1,-1,-1,-1,-1,-1,-1,-1,-1,-1,-1,-1,-1,-1,-1],"loss_changes":[6.694404E4,5.138617E3,3.761129E3,2.0574219E1,3.566382E1,3.5749146E1,1.5485703E3,1.5425781E1,1.6812866E1,3.9965576E1,8.278381E0,5.594951E1,1.7529907E1,1.4423145E2,3.839453E1,0E0,0E0,0E0,0E0,0E0,0E0,0E0,0E0,0E0,0E0,0E0,0E0,0E0,0E0,0E0,0E0],"parents":[2147483647,0,0,1,1,2,2,3,3,4,4,5,5,6,6,7,7,8,8,9,9,10,10,11,11,12,12,13,13,14,14],"right_children":[2,4,6,8,10,12,14,16,18,20,22,24,26,28,30,-1,-1,-1,-1,-1,-1,-1,-1,-1,-1,-1,-1,-1,-1,-1,-1],"split_conditions":[4E0,3E0,5E0,1.6E3,5.9E1,2E1,6E0,6.25E2,2.1E1,1.3E1,2E1,3E0,1.7E1,9E0,5E1,2.3499262E-1,3.251656E-1,2.7480665E-1,1.0081048E-1,1.0360386E-1,1.3862322E-1,4.64396E-2,-4.7653675E-2,-1.0553882E-1,2.0003675E-2,-1.2088519E-1,-8.511823E-2,-1.9246715E-1,-2.6718193E-1,-3.734475E-1,-4.3739757E-1],"split_indices":[11,11,11,13,1,3,11,13,3,7,8,10,8,8,1,0,0,0,0,0,0,0,0,0,0,0,0,0,0,0,0],"split_type":[0,0,0,0,0,0,0,0,0,0,0,0,0,0,0,0,0,0,0,0,0,0,0,0,0,0,0,0,0,0,0],"sum_hessian":[2.534E3,1.315E3,1.219E3,8.66E2,4.49E2,2.89E2,9.3E2,8.17E2,4.9E1,4.35E2,1.4E1,3.6E1,2.53E2,5.11E2,4.19E2,1.7E1,8E2,4.6E1,3E0,3.04E2,1.31E2,1.2E1,2E0,2.2E1,1.4E1,1.97E2,5.6E1,9.2E1,4.19E2,3.48E2,7.1E1],"tree_param":{"num_deleted":"0","num_feature":"14","num_nodes":"31","size_leaf_vector":"1"}},{"base_weights":[-3.8099255E-2,2.2190378E0,-3.6093938E0,-6.0633197E0,4.3810534E0,-1.4680818E0,-4.425644E0,-6.2170234E0,3.1447594E0,-3.3603707E-1,4.505874E0,-5.544866E0,2.3338792E0,-4.8429184E0,-4.1946697E0,-3.555834E-1,-2.7408397E-1,2.2132471E-1,-8.159786E-2,9.241833E-1,-7.508837E-2,2.2856462E-1,-9.396655E-2,-2.921145E-1,1.6188176E-1,2.0339648E-1,-7.055695E-2,-2.5965768E-1,-2.2438987E-1,-7.844102E-2,-2.1300934E-1],"categories":[],"categories_nodes":[],"categories_segments":[],"categories_sizes":[],"default_left":[0,0,0,0,0,0,0,0,0,0,0,0,0,0,0,0,0,0,0,0,0,0,0,0,0,0,0,0,0,0,0],"id":16,"left_children":[1,3,5,7,9,11,13,15,17,19,21,23,25,27,29,-1,-1,-1,-1,-1,-1,-1,-1,-1,-1,-1,-1,-1,-1,-1,-1],"loss_changes":[2.0627795E4,2.8104092E4,1.7256182E3,4.7952832E2,7.339707E2,4.275379E3,4.8789062E1,1.7153418E2,4.395875E1,7.517351E2,5.148535E2,3.6632788E2,9.343897E2,7.663574E0,7.400195E1,0E0,0E0,0E0,0E0,0E0,0E0,0E0,0E0,0E0,0E0,0E0,0E0,0E0,0E0,0E0,0E0],"parents":[2147483647,0,0,1,1,2,2,3,3,4,4,5,5,6,6,7,7,8,8,9,9,10,10,11,11,12,12,13,13,14,14],"right_children":[2,4,6,8,10,12,14,16,18,20,22,24,26,28,30,-1,-1,-1,-1,-1,-1,-1,-1,-1,-1,-1,-1,-1,-1,-1,-1],"split_conditions":[1.4E3,2.7E1,5.6E1,3E0,2.8E1,2.8E1,6.7E1,1.9E1,8E0,1.4E1,6.1E1,1.6E3,1.8E1,2.4E1,3.9E1,-3.555834E-1,-2.7408397E-1,2.2132471E-1,-8.159786E-2,9.241833E-1,-7.508837E-2,2.2856462E-1,-9.396655E-2,-2.921145E-1,1.6188176E-1,2.0339648E-1,-7.055695E-2,-2.5965768E-1,-2.2438987E-1,-7.844102E-2,-2.1300934E-1],"split_indices":[13,1,1,10,1,1,1,1,6,2,1,13,3,3,2,0,0,0,0,0,0,0,0,0,0,0,0,0,0,0,0],"split_type":[0,0,0,0,0,0,0,0,0,0,0,0,0,0,0,0,0,0,0,0,0,0,0,0,0,0,0,0,0,0,0],"sum_hessian":[2.557E3,1.567E3,9.9E2,3.24E2,1.243E3,2.74E2,7.16E2,3.19E2,5E0,3.2E1,1.211E3,1.32E2,1.42E2,2.48E2,4.68E2,1.4E2,1.79E2,4E0,1E0,1E0,3.1E1,1.199E3,1.2E1,1.28E2,4E0,9.7E1,4.5E1,1.18E2,1.3E2,1.2E1,4.56E2],"tree_param":{"num_deleted":"0","num_feature":"14","num_nodes":"31","size_leaf_vector":"1"}},{"base_weights":[-5.2360088E-2,-5.8534575E0,1.2303336E0,-5.951348E0,6.8672886E0,4.445064E0,-4.1250257E0,-3.4177616E-1,-2.818405E-1,-1.4289998E-1,9.010788E-1,-1.19043544E-1,4.4521027E0,-2.5080794E-1,-4.014104E0,2.3808563E-1,2.1440175E-1,-4.57392E-2,-2.0219588E-1],"categories":[],"categories_nodes":[],"categories_segments":[],"categories_sizes":[],"default_left":[0,0,0,0,0,0,0,0,0,0,0,0,0,0,0,0,0,0,0],"id":17,"left_children":[1,3,5,7,9,11,13,-1,-1,-1,-1,-1,15,-1,17,-1,-1,-1,-1],"loss_changes":[1.9026477E4,6.1741504E2,3.6068715E4,8.939844E1,4.8542023E2,7.349414E1,5.7557617E1,0E0,0E0,0E0,0E0,0E0,4.602539E1,0E0,6.135254E1,0E0,0E0,0E0,0E0],"parents":[2147483647,0,0,1,1,2,2,3,3,4,4,5,5,6,6,12,12,14,14],"right_children":[2,4,6,8,10,12,14,-1,-1,-1,-1,-1,16,-1,18,-1,-1,-1,-1],"split_conditions":[2E3,1.4E1,6E3,1E3,1E1,5E0,2.2E1,-3.4177616E-1,-2.818405E-1,-1.4289998E-1,9.010788E-1,-1.19043544E-1,1.3E1,-2.5080794E-1,1.25E3,2.3808563E-1,2.1440175E-1,-4.57392E-2,-2.0219588E-1],"split_indices":[0,3,0,0,4,7,3,0,0,0,0,0,3,0,13,0,0,0,0],"split_type":[0,0,0,0,0,0,0,0,0,0,0,0,0,0,0,0,0,0,0],"sum_hessian":[2.555E3,4.62E2,2.093E3,4.59E2,3E0,1.308E3,7.85E2,1.15E2,3.44E2,2E0,1E0,1E0,1.307E3,8.2E1,7.03E2,4.43E2,8.64E2,7E0,6.96E2],"tree_param":{"num_deleted":"0","num_feature":"14","num_nodes":"19","size_leaf_vector":"1"}},{"base_weights":[-4.875317E-2,4.2201195E0,-4.606768E0,5.5429325E0,1.7151606E0,-3.4400249E0,-6.7277737E0,5.59225E0,4.0341487E0,1.6551484E0,3.0935068E0,-1.7065322E0,-4.3665986E0,-6.429203E0,-3.965464E-1,2.7987283E-1,3.1119252E-2,9.786254E-2,2.3974113E-1,1.0225665E-1,7.347475E-2,-4.9247504E-3,1.8692368E-1,-9.316038E-2,-5.9907466E-2,-1.5753251E-1,-2.3148735E-1,-3.663232E-1,-3.0519474E-1],"categories":[],"categories_nodes":[],"categories_segments":[],"categories_sizes":[],"default_left":[0,0,0,0,0,0,0,0,0,0,0,0,0,0,0,0,0,0,0,0,0,0,0,0,0,0,0,0,0],"id":18,"left_children":[1,3,5,7,9,11,13,15,17,19,21,23,25,27,-1,-1,-1,-1,-1,-1,-1,-1,-1,-1,-1,-1,-1,-1,-1],"loss_changes":[4.988923E4,4.3776875E3,3.0454453E3,4.188086E1,3.2847168E1,1.2807275E3,1.0671289E2,1.815039E1,3.9590424E1,2.899646E1,3.7425446E1,2.0149597E1,1.5244043E2,5.94834E1,0E0,0E0,0E0,0E0,0E0,0E0,0E0,0E0,0E0,0E0,0E0,0E0,0E0,0E0,0E0],"parents":[2147483647,0,0,1,1,2,2,3,3,4,4,5,5,6,6,7,7,8,8,9,9,10,10,11,11,12,12,13,13],"right_children":[2,4,6,8,10,12,14,16,18,20,22,24,26,28,-1,-1,-1,-1,-1,-1,-1,-1,-1,-1,-1,-1,-1,-1,-1],"split_conditions":[4E0,3E0,6E0,1.714E3,6E0,5E0,9E0,7E0,4E0,1.3E1,1.2E1,3E3,5E1,1E3,-3.965464E-1,2.7987283E-1,3.1119252E-2,9.786254E-2,2.3974113E-1,1.0225665E-1,7.347475E-2,-4.9247504E-3,1.8692368E-1,-9.316038E-2,-5.9907466E-2,-1.5753251E-1,-2.3148735E-1,-3.663232E-1,-3.0519474E-1],"split_indices":[11,11,11,13,12,11,6,10,12,3,3,13,1,0,0,0,0,0,0,0,0,0,0,0,0,0,0,0,0],"split_type":[0,0,0,0,0,0,0,0,0,0,0,0,0,0,0,0,0,0,0,0,0,0,0,0,0,0,0,0,0],"sum_hessian":[2.562E3,1.323E3,1.239E3,8.65E2,4.58E2,8.01E2,4.38E2,8.35E2,3E1,4.41E2,1.7E1,2.8E2,5.21E2,3.56E2,8.2E1,8.34E2,1E0,9E0,2.1E1,1.39E2,3.02E2,3E0,1.4E1,2.12E2,6.8E1,9.5E1,4.26E2,8.9E1,2.67E2],"tree_param":{"num_deleted":"0","num_feature":"14","num_nodes":"29","size_leaf_vector":"1"}},{"base_weights":[2.33527E-2,1.9789667E0,-2.9853077E0,-4.7795687E0,3.8690393E0,-8.977303E-1,-3.7357292E0,-5.5683093E0,-2.2588718E0,3.9331045E0,-3.336034E-1,-4.1165442E0,2.303762E0,-4.261162E0,-3.4550183E0,-3.265011E-1,-2.6169893E-1,-1.7619374E-1,1.3925952E-1,1.9326463E-1,2.5601843E-1,1.699372E-1,-1.1588335E-1,-2.3679064E-1,1.5911181E-1,2.0368128E-1,-3.2823943E-2,-2.3157957E-1,-1.936029E-1,-7.304089E-2,-1.7491077E-1],"categories":[],"categories_nodes":[],"categories_segments":[],"categories_sizes":[],"default_left":[0,0,0,0,0,0,0,0,0,0,0,0,0,0,0,0,0,0,0,0,0,0,0,0,0,0,0,0,0,0,0],"id":19,"left_children":[1,3,5,7,9,11,13,15,17,19,21,23,25,27,29,-1,-1,-1,-1,-1,-1,-1,-1,-1,-1,-1,-1,-1,-1,-1,-1],"loss_changes":[1.4950704E4,1.969064E4,1.5647773E3,6.57437E2,3.2548047E2,2.7506157E3,9.383301E1,4.813379E1,5.330363E2,7.569531E1,1.4857623E2,6.16218E2,7.0473E2,1.8388672E1,3.6669434E1,0E0,0E0,0E0,0E0,0E0,0E0,0E0,0E0,0E0,0E0,0E0,0E0,0E0,0E0,0E0,0E0],"parents":[2147483647,0,0,1,1,2,2,3,3,4,4,5,5,6,6,7,7,8,8,9,9,10,10,11,11,12,12,13,13,14,14],"right_children":[2,4,6,8,10,12,14,16,18,20,22,24,26,28,30,-1,-1,-1,-1,-1,-1,-1,-1,-1,-1,-1,-1,-1,-1,-1,-1],"split_conditions":[1.4E3,2.8E1,5.6E1,2.5E1,5.9E1,2.9E1,6.7E1,6E0,8E2,6E0,7E0,1.6E3,1.8E1,2.4E1,3.9E1,-3.265011E-1,-2.6169893E-1,-1.7619374E-1,1.3925952E-1,1.9326463E-1,2.5601843E-1,1.699372E-1,-1.1588335E-1,-2.3679064E-1,1.5911181E-1,2.0368128E-1,-3.2823943E-2,-2.3157957E-1,-1.936029E-1,-7.304089E-2,-1.7491077E-1],"split_indices":[13,1,1,1,1,1,1,4,13,12,9,13,3,3,2,0,0,0,0,0,0,0,0,0,0,0,0,0,0,0,0],"split_type":[0,0,0,0,0,0,0,0,0,0,0,0,0,0,0,0,0,0,0,0,0,0,0,0,0,0,0,0,0,0,0],"sum_hessian":[2.539E3,1.539E3,1E3,3.36E2,1.203E3,2.65E2,7.35E2,2.55E2,8.1E1,1.185E3,1.8E1,1.32E2,1.33E2,2.51E2,4.84E2,6.1E1,1.94E2,6.5E1,1.6E1,1.125E3,6E1,6E0,1.2E1,1.22E2,1E1,8.3E1,5E1,1.23E2,1.28E2,1.1E1,4.73E2],"tree_param":{"num_deleted":"0","num_feature":"14","num_nodes":"31","size_leaf_vector":"1"}},{"base_weights":[-3.2709616E-3,3.8167567E0,-4.18386E0,5.110111E0,1.3748598E0,-1.3542888E0,-4.9895034E0,5.1245675E0,2.6556742E0,5.2648187E-1,1.4779855E0,-5.4681677E-1,-1.5103366E0,-4.0177994E0,-6.130189E0,2.5643694E-1,4.1145373E-2,1.6160004E-1,7.0771456E-2,7.701409E-2,-1.3038109E-2,9.233158E-2,6.4613715E-2,-5.255986E-2,6.365981E-2,-8.51005E-2,-4.6101857E-2,-1.5802841E-1,-2.0825207E-1,-2.9440585E-1,-3.607531E-1],"categories":[],"categories_nodes":[],"categories_segments":[],"categories_sizes":[],"default_left":[0,0,0,0,0,0,0,0,0,0,0,0,0,0,0,0,0,0,0,0,0,0,0,0,0,0,0,0,0,0,0],"id":20,"left_children":[1,3,5,7,9,11,13,15,17,19,21,23,25,27,29,-1,-1,-1,-1,-1,-1,-1,-1,-1,-1,-1,-1,-1,-1,-1,-1],"loss_changes":[3.933402E4,4.057627E3,2.674084E3,1.6232422E1,3.832965E1,3.2187225E1,9.895625E2,1.0761719E1,4.2884064E-1,4.0307045E1,2.486145E1,4.1729446E1,2.3125427E1,4.9567383E1,6.7552734E1,0E0,0E0,0E0,0E0,0E0,0E0,0E0,0E0,0E0,0E0,0E0,0E0,0E0,0E0,0E0,0E0],"parents":[2147483647,0,0,1,1,2,2,3,3,4,4,5,5,6,6,7,7,8,8,9,9,10,10,11,11,12,12,13,13,14,14],"right_children":[2,4,6,8,10,12,14,16,18,20,22,24,26,28,30,-1,-1,-1,-1,-1,-1,-1,-1,-1,-1,-1,-1,-1,-1,-1,-1],"split_conditions":[4E0,3E0,5E0,2.2E1,1E1,3.4E1,6E0,2.1E1,2.7E1,1.6E1,1E3,7E0,3E3,1.3E1,1.4E1,2.5643694E-1,4.1145373E-2,1.6160004E-1,7.0771456E-2,7.701409E-2,-1.3038109E-2,9.233158E-2,6.4613715E-2,-5.255986E-2,6.365981E-2,-8.51005E-2,-4.6101857E-2,-1.5802841E-1,-2.0825207E-1,-2.9440585E-1,-3.607531E-1],"split_indices":[11,11,11,3,5,2,11,7,4,2,13,9,13,3,4,0,0,0,0,0,0,0,0,0,0,0,0,0,0,0,0],"split_type":[0,0,0,0,0,0,0,0,0,0,0,0,0,0,0,0,0,0,0,0,0,0,0,0,0,0,0,0,0,0,0],"sum_hessian":[2.461E3,1.286E3,1.175E3,8.4E2,4.46E2,2.61E2,9.14E2,8.34E2,6E0,4.9E1,3.97E2,4.3E1,2.18E2,4.96E2,4.18E2,8.33E2,1E0,3E0,3E0,2.1E1,2.8E1,1.3E2,2.67E2,3.4E1,9E0,1.63E2,5.5E1,7.6E1,4.2E2,3.47E2,7.1E1],"tree_param":{"num_deleted":"0","num_feature":"14","num_nodes":"31","size_leaf_vector":"1"}},{"base_weights":[6.5454952E-3,3.6716242E0,-3.9423256E0,4.912146E0,1.3663621E0,-1.3130773E0,-4.7037196E0,4.8111653E0,2.8659388E-1,1.4603531E0,7.946479E-1,-9.2397314E-1,-1.4659761E0,-3.781223E0,-5.810068E0,2.4175166E-1,4.9701344E-2,6.635516E-2,1.0751654E-1,7.667701E-2,-5.6444784E-3,-5.84349E-2,-1.3333417E-2,-1.0478504E-1,-6.501051E-2,-1.4413813E-1,-1.9697331E-1,-2.7821717E-1,-3.4175205E-1],"categories":[],"categories_nodes":[],"categories_segments":[],"categories_sizes":[],"default_left":[0,0,0,0,0,0,0,0,0,0,0,0,0,0,0,0,0,0,0,0,0,0,0,0,0,0,0,0,0],"id":21,"left_children":[1,3,5,7,9,11,13,15,-1,17,19,21,23,25,27,-1,-1,-1,-1,-1,-1,-1,-1,-1,-1,-1,-1,-1,-1],"loss_changes":[3.650071E4,3.7338125E3,2.424123E3,4.2783203E1,2.3504333E1,1.4946716E1,9.3841797E2,6.4708984E1,0E0,3.3278564E1,4.5101467E1,1.2557045E1,1.7630585E1,6.200586E1,6.9259766E1,0E0,0E0,0E0,0E0,0E0,0E0,0E0,0E0,0E0,0E0,0E0,0E0,0E0,0E0],"parents":[2147483647,0,0,1,1,2,2,3,3,4,4,5,5,6,6,7,7,9,9,10,10,11,11,12,12,13,13,14,14],"right_children":[2,4,6,8,10,12,14,16,-1,18,20,22,24,26,28,-1,-1,-1,-1,-1,-1,-1,-1,-1,-1,-1,-1,-1,-1],"split_conditions":[4E0,3E0,5E0,3.5E1,5E0,7E3,6E0,5.5E1,2.8659388E-1,1.7E1,5.1E1,6E1,6.6E1,1.3E1,2.9E1,2.4175166E-1,4.9701344E-2,6.635516E-2,1.0751654E-1,7.667701E-2,-5.6444784E-3,-5.84349E-2,-1.3333417E-2,-1.0478504E-1,-6.501051E-2,-1.4413813E-1,-1.9697331E-1,-2.7821717E-1,-3.4175205E-1],"split_indices":[11,11,11,2,10,0,11,1,0,3,1,1,1,3,1,0,0,0,0,0,0,0,0,0,0,0,0,0,0],"split_type":[0,0,0,0,0,0,0,0,0,0,0,0,0,0,0,0,0,0,0,0,0,0,0,0,0,0,0,0,0],"sum_hessian":[2.52E3,1.307E3,1.213E3,8.49E2,4.58E2,2.73E2,9.4E2,7.62E2,8.7E1,3.92E2,6.6E1,7.9E1,1.94E2,5.15E2,4.25E2,7.57E2,5E0,3.31E2,6.1E1,3.6E1,3E1,5.7E1,2.2E1,3.8E1,1.56E2,8E1,4.35E2,3.48E2,7.7E1],"tree_param":{"num_deleted":"0","num_feature":"14","num_nodes":"29","size_leaf_vector":"1"}},{"base_weights":[1.9681245E-2,3.415817E0,-3.716365E0,4.533951E0,1.3260968E0,-2.7890923E0,-5.516614E0,4.575757E0,3.169562E0,-1.24970056E-1,1.339728E0,-1.432769E0,-3.536897E0,-5.279748E0,-3.2285616E-1,7.759682E-2,2.2941995E-1,1.7469268E-1,6.7206845E-2,6.442476E-2,1.2687895E-1,-1.9711997E-2,-7.567899E-2,-1.3477688E-1,-1.8461537E-1,-2.9188776E-1,-2.50583E-1],"categories":[],"categories_nodes":[],"categories_segments":[],"categories_sizes":[],"default_left":[0,0,0,0,0,0,0,0,0,0,0,0,0,0,0,0,0,0,0,0,0,0,0,0,0,0,0],"id":22,"left_children":[1,3,5,7,9,11,13,15,17,-1,19,21,23,25,-1,-1,-1,-1,-1,-1,-1,-1,-1,-1,-1,-1,-1],"loss_changes":[3.2215146E4,3.1016475E3,2.0028223E3,3.489453E1,2.7596619E1,8.0634424E2,5.7246094E1,2.4914062E1,1.2470886E1,0E0,2.5205627E1,2.340564E1,5.738672E1,2.0558594E1,0E0,0E0,0E0,0E0,0E0,0E0,0E0,0E0,0E0,0E0,0E0,0E0,0E0],"parents":[2147483647,0,0,1,1,2,2,3,3,4,4,5,5,6,6,7,7,8,8,10,10,11,11,12,12,13,13],"right_children":[2,4,6,8,10,12,14,16,18,-1,20,22,24,26,-1,-1,-1,-1,-1,-1,-1,-1,-1,-1,-1,-1,-1],"split_conditions":[4E0,3E0,6E0,1.714E3,6E0,5E0,1.4E1,6E2,3.2E1,-1.24970056E-1,6E0,1.3E1,2.8E1,1.9E1,-3.2285616E-1,7.759682E-2,2.2941995E-1,1.7469268E-1,6.7206845E-2,6.442476E-2,1.2687895E-1,-1.9711997E-2,-7.567899E-2,-1.3477688E-1,-1.8461537E-1,-2.9188776E-1,-2.50583E-1],"split_indices":[11,11,11,13,6,11,4,13,1,0,12,3,1,1,0,0,0,0,0,0,0,0,0,0,0,0,0],"split_type":[0,0,0,0,0,0,0,0,0,0,0,0,0,0,0,0,0,0,0,0,0,0,0,0,0,0,0],"sum_hessian":[2.537E3,1.329E3,1.208E3,8.65E2,4.64E2,7.99E2,4.09E2,8.37E2,2.8E1,1E0,4.63E2,2.85E2,5.14E2,3.32E2,7.7E1,4E0,8.33E2,2.3E1,5E0,4.46E2,1.7E1,2.1E1,2.64E2,8.3E1,4.31E2,1.01E2,2.31E2],"tree_param":{"num_deleted":"0","num_feature":"14","num_nodes":"27","size_leaf_vector":"1"}},{"base_weights":[-2.6134448E-2,3.295364E0,-3.587983E0,4.4028454E0,1.1838263E0,-1.294575E0,-4.241181E0,4.5828767E0,4.124756E0,9.3834406E-1,1.5714577E0,-4.047654E-1,-1.437957E0,-3.4502523E0,-5.2623405E0,2.1818578E-1,2.588708E-1,1.3174132E-1,2.0921575E-1,5.193569E-2,-2.8457368E-2,-1.3003917E-1,8.05418E-2,-1.9884829E-1,-1.0305157E-2,-8.209702E-2,-4.307319E-2,-1.4264467E-1,-1.7903589E-1,-2.5230914E-1,-3.209934E-1],"categories":[],"categories_nodes":[],"categories_segments":[],"categories_sizes":[],"default_left":[0,0,0,0,0,0,0,0,0,0,0,0,0,0,0,0,0,0,0,0,0,0,0,0,0,0,0,0,0,0,0],"id":23,"left_children":[1,3,5,7,9,11,13,15,17,19,21,23,25,27,29,-1,-1,-1,-1,-1,-1,-1,-1,-1,-1,-1,-1,-1,-1,-1,-1],"loss_changes":[2.981329E4,3.0441777E3,1.8161387E3,2.3902344E1,4.1345947E1,3.399286E1,7.4589453E2,4.3859375E1,1.967871E1,4.2654373E1,3.2612396E1,2.685713E1,2.5985168E1,3.1557617E1,7.044043E1,0E0,0E0,0E0,0E0,0E0,0E0,0E0,0E0,0E0,0E0,0E0,0E0,0E0,0E0,0E0,0E0],"parents":[2147483647,0,0,1,1,2,2,3,3,4,4,5,5,6,6,7,7,8,8,9,9,10,10,11,11,12,12,13,13,14,14],"right_children":[2,4,6,8,10,12,14,16,18,20,22,24,26,28,30,-1,-1,-1,-1,-1,-1,-1,-1,-1,-1,-1,-1,-1,-1,-1,-1],"split_conditions":[4E0,3E0,5E0,4.1E1,4E3,3.4E1,6E0,3.7E1,7.14E2,2.8E1,7.14E2,8E0,3E3,9E0,2.8E1,2.1818578E-1,2.588708E-1,1.3174132E-1,2.0921575E-1,5.193569E-2,-2.8457368E-2,-1.3003917E-1,8.05418E-2,-1.9884829E-1,-1.0305157E-2,-8.209702E-2,-4.307319E-2,-1.4264467E-1,-1.7903589E-1,-2.5230914E-1,-3.209934E-1],"split_indices":[11,11,11,1,0,2,11,1,13,2,13,2,13,8,4,0,0,0,0,0,0,0,0,0,0,0,0,0,0,0,0],"split_type":[0,0,0,0,0,0,0,0,0,0,0,0,0,0,0,0,0,0,0,0,0,0,0,0,0,0,0,0,0,0,0],"sum_hessian":[2.518E3,1.303E3,1.215E3,8.54E2,4.49E2,2.7E2,9.45E2,5.09E2,3.45E2,2.77E2,1.72E2,3.8E1,2.32E2,5.35E2,4.1E2,3.78E2,1.31E2,1.5E1,3.3E2,2.6E2,1.7E1,1E0,1.71E2,1E0,3.7E1,1.7E2,6.2E1,1E2,4.35E2,3.5E2,6E1],"tree_param":{"num_deleted":"0","num_feature":"14","num_nodes":"31","size_leaf_vector":"1"}},{"base_weights":[-8.592491E-2,3.059752E0,-3.4223347E0,4.1274056E0,1.1281168E0,-1.1370939E0,-4.0675426E0,4.317219E0,3.8996572E0,1.2371608E0,4.1786715E-1,-2.3295508E-1,-1.2407424E0,-3.2556255E0,-5.064749E0,2.197953E-1,1.4097199E-1,1.8390997E-1,2.2008057E-1,5.3775974E-2,1.0676017E-1,5.7383925E-2,-1.4018791E-2,-3.4883883E-2,1.0686245E-1,-8.263359E-2,-5.1924627E-2,-1.31716E-1,-1.6965918E-1,-2.4167548E-1,-3.0157503E-1],"categories":[],"categories_nodes":[],"categories_segments":[],"categories_sizes":[],"default_left":[0,0,0,0,0,0,0,0,0,0,0,0,0,0,0,0,0,0,0,0,0,0,0,0,0,0,0,0,0,0,0],"id":24,"left_children":[1,3,5,7,9,11,13,15,17,19,21,23,25,27,29,-1,-1,-1,-1,-1,-1,-1,-1,-1,-1,-1,-1,-1,-1,-1,-1],"loss_changes":[2.6385078E4,2.6639824E3,1.7942109E3,1.9173828E1,3.5264282E1,2.5013367E1,7.534873E2,4.0052734E1,2.7051758E1,5.5767822E1,3.2425674E1,3.3434246E1,1.8445404E1,3.6101562E1,6.5856445E1,0E0,0E0,0E0,0E0,0E0,0E0,0E0,0E0,0E0,0E0,0E0,0E0,0E0,0E0,0E0,0E0],"parents":[2147483647,0,0,1,1,2,2,3,3,4,4,5,5,6,6,7,7,8,8,9,9,10,10,11,11,12,12,13,13,14,14],"right_children":[2,4,6,8,10,12,14,16,18,20,22,24,26,28,30,-1,-1,-1,-1,-1,-1,-1,-1,-1,-1,-1,-1,-1,-1,-1,-1],"split_conditions":[4E0,3E0,5E0,2.1E1,5E0,5.4E1,6E0,1.6E1,2.7E1,1.7E1,1E3,2.6E1,4E0,1.4E1,2.9E1,2.197953E-1,1.4097199E-1,1.8390997E-1,2.2008057E-1,5.3775974E-2,1.0676017E-1,5.7383925E-2,-1.4018791E-2,-3.4883883E-2,1.0686245E-1,-8.263359E-2,-5.1924627E-2,-1.31716E-1,-1.6965918E-1,-2.4167548E-1,-3.0157503E-1],"split_indices":[11,11,11,4,10,1,11,3,4,3,13,4,12,7,1,0,0,0,0,0,0,0,0,0,0,0,0,0,0,0,0],"split_type":[0,0,0,0,0,0,0,0,0,0,0,0,0,0,0,0,0,0,0,0,0,0,0,0,0,0,0,0,0,0,0],"sum_hessian":[2.512E3,1.293E3,1.219E3,8.32E2,4.61E2,2.69E2,9.5E2,4.44E2,3.88E2,3.99E2,6.2E1,2.8E1,2.41E2,5.26E2,4.24E2,4.2E2,2.4E1,2.75E2,1.13E2,3.4E2,5.9E1,3E1,3.2E1,2.4E1,4E0,7.7E1,1.64E2,9.9E1,4.27E2,3.47E2,7.7E1],"tree_param":{"num_deleted":"0","num_feature":"14","num_nodes":"31","size_leaf_vector":"1"}},{"base_weights":[-7.7424295E-2,1.3545915E0,-2.2296002E0,-3.7410564E0,2.8173223E0,-8.298466E-1,-2.7609875E0,-4.231483E0,-2.088146E0,2.8619037E0,-7.389094E-2,-3.2659886E0,1.7915252E0,-3.1159222E0,-2.6208887E0,-2.6009724E-1,-1.9457631E-1,-1.6942576E-1,1.13253295E-1,-4.309106E-2,1.4361118E-1,1.2605953E-1,-7.3277935E-2,-1.8140554E-1,1.3247205E-1,1.5807034E-1,-2.7679965E-2,-1.4511317E-1,-2.0462857E-1,-1.2832078E-1,-1.7252454E-1],"categories":[],"categories_nodes":[],"categories_segments":[],"categories_sizes":[],"default_left":[0,0,0,0,0,0,0,0,0,0,0,0,0,0,0,0,0,0,0,0,0,0,0,0,0,0,0,0,0,0,0],"id":25,"left_children":[1,3,5,7,9,11,13,15,17,19,21,23,25,27,29,-1,-1,-1,-1,-1,-1,-1,-1,-1,-1,-1,-1,-1,-1,-1,-1],"loss_changes":[7.837336E3,1.1392127E4,7.534214E2,2.6758887E2,1.5320898E2,1.8003265E3,2.843164E1,6.6194336E1,4.6053778E2,4.739746E1,7.2313286E1,3.2236023E2,4.3865598E2,3.0482422E1,1.5276611E1,0E0,0E0,0E0,0E0,0E0,0E0,0E0,0E0,0E0,0E0,0E0,0E0,0E0,0E0,0E0,0E0],"parents":[2147483647,0,0,1,1,2,2,3,3,4,4,5,5,6,6,7,7,8,8,9,9,10,10,11,11,12,12,13,13,14,14],"right_children":[2,4,6,8,10,12,14,16,18,20,22,24,26,28,30,-1,-1,-1,-1,-1,-1,-1,-1,-1,-1,-1,-1,-1,-1,-1,-1],"split_conditions":[1.4E3,2.8E1,5.6E1,2.5E1,5.9E1,2.9E1,6.5E1,8E0,8E2,6E0,7E0,1.6E3,1.8E1,4E1,6E0,-2.6009724E-1,-1.9457631E-1,-1.6942576E-1,1.13253295E-1,-4.309106E-2,1.4361118E-1,1.2605953E-1,-7.3277935E-2,-1.8140554E-1,1.3247205E-1,1.5807034E-1,-2.7679965E-2,-1.4511317E-1,-2.0462857E-1,-1.2832078E-1,-1.7252454E-1],"split_indices":[13,1,1,1,1,1,1,2,13,7,9,13,3,2,12,0,0,0,0,0,0,0,0,0,0,0,0,0,0,0,0],"split_type":[0,0,0,0,0,0,0,0,0,0,0,0,0,0,0,0,0,0,0,0,0,0,0,0,0,0,0,0,0,0,0],"sum_hessian":[2.541E3,1.526E3,1.015E3,3.4E2,1.186E3,2.8E2,7.35E2,2.61E2,7.9E1,1.168E3,1.8E1,1.45E2,1.35E2,2.02E2,5.33E2,6.4E1,1.97E2,6.1E1,1.8E1,3E0,1.165E3,6E0,1.2E1,1.37E2,8E0,8.5E1,5E1,1.69E2,3.3E1,5.04E2,2.9E1],"tree_param":{"num_deleted":"0","num_feature":"14","num_nodes":"31","size_leaf_vector":"1"}},{"base_weights":[4.9022097E-2,2.9238482E0,-3.0710223E0,3.8913548E0,1.0021001E0,-1.0272324E0,-3.6888287E0,3.9012728E0,-2.5226593E-1,8.9201605E-1,1.6057223E0,-1.1282576E0,-4.4653004E-1,-2.9728935E0,-4.600395E0,2.0555417E-1,1.8210773E-1,-3.181362E-2,1.2893677E-2,4.180057E-2,1.04118384E-1,8.9844234E-2,-3.0269131E-2,-4.6761304E-2,-8.232737E-2,4.9913768E-2,-7.148029E-2,-1.015652E-1,-1.591389E-1,-2.2035713E-1,-2.7054915E-1],"categories":[],"categories_nodes":[],"categories_segments":[],"categories_sizes":[],"default_left":[0,0,0,0,0,0,0,0,0,0,0,0,0,0,0,0,0,0,0,0,0,0,0,0,0,0,0,0,0,0,0],"id":26,"left_children":[1,3,5,7,9,11,13,15,17,19,21,23,25,27,29,-1,-1,-1,-1,-1,-1,-1,-1,-1,-1,-1,-1,-1,-1,-1,-1],"loss_changes":[2.2370154E4,2.4094766E3,1.5063594E3,3.645117E1,2.753949E1,1.5863892E1,5.8543066E2,3.183496E1,7.5176847E-1,2.2991882E1,2.8984695E1,2.2171051E1,6.250232E1,9.570752E1,3.9126953E1,0E0,0E0,0E0,0E0,0E0,0E0,0E0,0E0,0E0,0E0,0E0,0E0,0E0,0E0,0E0,0E0],"parents":[2147483647,0,0,1,1,2,2,3,3,4,4,5,5,6,6,7,7,8,8,9,9,10,10,11,11,12,12,13,13,14,14],"right_children":[2,4,6,8,10,12,14,16,18,20,22,24,26,28,30,-1,-1,-1,-1,-1,-1,-1,-1,-1,-1,-1,-1,-1,-1,-1,-1],"split_conditions":[4E0,3E0,5E0,9E0,1.8E1,1E2,6E0,2.7E1,5E1,6E0,8.2E1,8E1,4.7E1,3.1E1,2.8E1,2.0555417E-1,1.8210773E-1,-3.181362E-2,1.2893677E-2,4.180057E-2,1.04118384E-1,8.9844234E-2,-3.0269131E-2,-4.6761304E-2,-8.232737E-2,4.9913768E-2,-7.148029E-2,-1.015652E-1,-1.591389E-1,-2.2035713E-1,-2.7054915E-1],"split_indices":[11,11,11,9,3,1,11,2,1,12,1,1,4,2,1,0,0,0,0,0,0,0,0,0,0,0,0,0,0,0,0],"split_type":[0,0,0,0,0,0,0,0,0,0,0,0,0,0,0,0,0,0,0,0,0,0,0,0,0,0,0,0,0,0,0],"sum_hessian":[2.492E3,1.297E3,1.195E3,8.62E2,4.35E2,2.78E2,9.17E2,8.6E2,2E0,3.7E2,6.5E1,2.36E2,4.2E1,5.16E2,4.01E2,4.67E2,3.93E2,1E0,1E0,3.55E2,1.5E1,6E1,5E0,1.74E2,6.2E1,1.7E1,2.5E1,9.6E1,4.2E2,3.29E2,7.2E1],"tree_param":{"num_deleted":"0","num_feature":"14","num_nodes":"31","size_leaf_vector":"1"}},{"base_weights":[3.6305103E-2,2.6818902E0,-2.9295883E0,3.5579956E0,1.0248351E0,-9.732755E-1,-3.520079E0,3.7494059E0,3.3070629E0,-1.2836495E-1,1.0379963E0,-1.8446337E0,-8.884465E-1,-2.8098526E0,-4.4228077E0,1.8054609E-1,2.1262541E-1,1.4900771E-1,1.898055E-1,4.9395096E-2,9.258025E-2,-1.0468389E-1,9.708448E-2,-4.1959774E-2,-1.0789072E-1,-8.86317E-2,-1.5140772E-1,-2.1121807E-1,-2.67354E-1],"categories":[],"categories_nodes":[],"categories_segments":[],"categories_sizes":[],"default_left":[0,0,0,0,0,0,0,0,0,0,0,0,0,0,0,0,0,0,0,0,0,0,0,0,0,0,0,0,0],"id":27,"left_children":[1,3,5,7,9,11,13,15,17,-1,19,21,23,25,27,-1,-1,-1,-1,-1,-1,-1,-1,-1,-1,-1,-1,-1,-1],"loss_changes":[2.0071418E4,1.959126E3,1.3897275E3,3.005957E1,2.4837585E1,1.9131683E1,5.8126855E2,1.90625E1,5.1197754E1,0E0,1.7245209E1,2.6696342E1,1.4318726E1,1.12600586E2,5.1879883E1,0E0,0E0,0E0,0E0,0E0,0E0,0E0,0E0,0E0,0E0,0E0,0E0,0E0,0E0],"parents":[2147483647,0,0,1,1,2,2,3,3,4,4,5,5,6,6,7,7,8,8,10,10,11,11,12,12,13,13,14,14],"right_children":[2,4,6,8,10,12,14,16,18,-1,20,22,24,26,28,-1,-1,-1,-1,-1,-1,-1,-1,-1,-1,-1,-1,-1,-1],"split_conditions":[4E0,3E0,5E0,2.7E1,6E0,3E0,6E0,3E3,3.3E1,-1.2836495E-1,3.1E1,6.1E1,6.7E1,9E0,1.6E3,1.8054609E-1,2.1262541E-1,1.4900771E-1,1.898055E-1,4.9395096E-2,9.258025E-2,-1.0468389E-1,9.708448E-2,-4.1959774E-2,-1.0789072E-1,-8.86317E-2,-1.5140772E-1,-2.1121807E-1,-2.67354E-1],"split_indices":[11,11,11,2,6,12,11,0,2,0,4,2,2,6,13,0,0,0,0,0,0,0,0,0,0,0,0,0,0],"split_type":[0,0,0,0,0,0,0,0,0,0,0,0,0,0,0,0,0,0,0,0,0,0,0,0,0,0,0,0,0],"sum_hessian":[2.556E3,1.351E3,1.205E3,8.83E2,4.68E2,2.8E2,9.25E2,4.93E2,3.9E2,1E0,4.67E2,2.3E1,2.57E2,5.2E2,4.05E2,3.93E2,1E2,2.38E2,1.52E2,4.42E2,2.5E1,2.2E1,1E0,2.49E2,8E0,9.2E1,4.28E2,3.38E2,6.7E1],"tree_param":{"num_deleted":"0","num_feature":"14","num_nodes":"29","size_leaf_vector":"1"}},{"base_weights":[-6.67805E-2,2.470029E0,-2.8128214E0,3.3738215E0,8.0307907E-1,-2.0869663E0,-4.1707535E0,3.387412E0,9.1562206E-1,7.4744457E-1,2.0491903E0,-1.0145152E0,-2.6483421E0,-3.906026E0,-5.253941E0,1.6636562E-1,2.1068275E-1,1.493454E-2,5.747075E-2,4.5092553E-2,2.0150265E-2,-3.8978506E-2,1.314153E-1,-5.8756437E-2,-1.8844454E-2,-8.165493E-2,-1.4417922E-1,-2.325341E-1,-1.8212448E-1,-2.663075E-1,-1.2842432E-1],"categories":[],"categories_nodes":[],"categories_segments":[],"categories_sizes":[],"default_left":[0,0,0,0,0,0,0,0,0,0,0,0,0,0,0,0,0,0,0,0,0,0,0,0,0,0,0,0,0,0,0],"id":28,"left_children":[1,3,5,7,9,11,13,15,17,19,21,23,25,27,29,-1,-1,-1,-1,-1,-1,-1,-1,-1,-1,-1,-1,-1,-1,-1,-1],"loss_changes":[1.7408473E4,1.9543345E3,1.1740908E3,2.502832E1,3.0220001E1,4.6931934E2,9.9052246E1,2.7541992E1,5.220852E-1,2.3037354E1,3.3174355E1,2.7310577E1,1.1804834E2,4.9586426E1,1.638916E0,0E0,0E0,0E0,0E0,0E0,0E0,0E0,0E0,0E0,0E0,0E0,0E0,0E0,0E0,0E0,0E0],"parents":[2147483647,0,0,1,1,2,2,3,3,4,4,5,5,6,6,7,7,8,8,9,9,10,10,11,11,12,12,13,13,14,14],"right_children":[2,4,6,8,10,12,14,16,18,20,22,24,26,28,30,-1,-1,-1,-1,-1,-1,-1,-1,-1,-1,-1,-1,-1,-1,-1,-1],"split_conditions":[4E0,3E0,6E0,2.2E1,6E0,5E0,2.8E1,2.9E1,2.3E1,2.4E1,1.2E1,1.7E1,9E0,1E3,6E0,1.6636562E-1,2.1068275E-1,1.493454E-2,5.747075E-2,4.5092553E-2,2.0150265E-2,-3.8978506E-2,1.314153E-1,-5.8756437E-2,-1.8844454E-2,-8.165493E-2,-1.4417922E-1,-2.325341E-1,-1.8212448E-1,-2.663075E-1,-1.2842432E-1],"split_indices":[11,11,11,3,12,11,1,4,3,4,3,8,8,0,12,0,0,0,0,0,0,0,0,0,0,0,0,0,0,0,0],"split_type":[0,0,0,0,0,0,0,0,0,0,0,0,0,0,0,0,0,0,0,0,0,0,0,0,0,0,0,0,0,0,0],"sum_hessian":[2.497E3,1.298E3,1.199E3,8.41E2,4.57E2,7.83E2,4.16E2,8.36E2,5E0,4.39E2,1.8E1,2.7E2,5.13E2,3.38E2,7.8E1,7.84E2,5.2E1,2E0,3E0,3.02E2,1.37E2,3E0,1.5E1,2.15E2,5.5E1,9.8E1,4.15E2,8.4E1,2.54E2,7.5E1,3E0],"tree_param":{"num_deleted":"0","num_feature":"14","num_nodes":"31","size_leaf_vector":"1"}},{"base_weights":[-2.3598485E-3,-3.1719756E0,7.1779776E-1,-3.263283E0,8.189865E0,2.4713025E0,-2.2828712E0,-2.008168E-1,-2.991104E0,-6.619961E-2,9.1828597E-1,2.572126E0,2.0914812E0,-2.607769E0,-2.0789275E0,-1.4124843E-1,-1.6122107E-1,-1.2628312E-1,1.2898074E-1,7.047099E-2,1.219879E-1,-1.1986029E-1,-1.5869032E-1,-8.2211375E-2,-1.084633E-1],"categories":[],"categories_nodes":[],"categories_segments":[],"categories_sizes":[],"default_left":[0,0,0,0,0,0,0,0,0,0,0,0,0,0,0,0,0,0,0,0,0,0,0,0,0],"id":29,"left_children":[1,3,5,7,9,11,13,-1,15,-1,-1,17,19,21,23,-1,-1,-1,-1,-1,-1,-1,-1,-1,-1],"loss_changes":[5.7453555E3,5.1016455E2,1.0797361E4,8.288574E1,4.1156253E2,4.4211914E1,4.473828E1,0E0,4.225342E0,0E0,0E0,4.5416016E1,6.2361694E1,2.6717651E1,1.4890015E1,0E0,0E0,0E0,0E0,0E0,0E0,0E0,0E0,0E0,0E0],"parents":[2147483647,0,0,1,1,2,2,3,3,4,4,5,5,6,6,8,8,11,11,12,12,13,13,14,14],"right_children":[2,4,6,8,10,12,14,-1,16,-1,-1,18,20,22,24,-1,-1,-1,-1,-1,-1,-1,-1,-1,-1],"split_conditions":[2E3,1.4E1,6E3,1E3,1.3E1,1.9E1,8E3,-2.008168E-1,6E0,-6.619961E-2,9.1828597E-1,5E0,4E0,4E1,1E4,-1.4124843E-1,-1.6122107E-1,-1.2628312E-1,1.2898074E-1,7.047099E-2,1.219879E-1,-1.1986029E-1,-1.5869032E-1,-8.2211375E-2,-1.084633E-1],"split_indices":[0,3,0,0,2,5,0,0,7,0,0,7,12,2,0,0,0,0,0,0,0,0,0,0,0],"split_type":[0,0,0,0,0,0,0,0,0,0,0,0,0,0,0,0,0,0,0,0,0,0,0,0,0],"sum_hessian":[2.515E3,4.65E2,2.05E3,4.62E2,3E0,1.294E3,7.56E2,1.19E2,3.43E2,2E0,1E0,1.018E3,2.76E2,2.87E2,4.69E2,2.08E2,1.35E2,1E0,1.017E3,9.5E1,1.81E2,2.13E2,7.4E1,8.4E1,3.85E2],"tree_param":{"num_deleted":"0","num_feature":"14","num_nodes":"25","size_leaf_vector":"1"}},{"base_weights":[-1.8404165E-2,2.315227E0,-2.5444052E0,3.170575E0,7.0614946E-1,-7.538619E-1,-3.0636227E0,1.1789608E0,3.1903222E0,1.1276661E0,5.105936E-1,-7.142592E-1,-2.40374E0,-2.5265253E0,-3.728308E0,1.3731016E-1,2.2193743E-2,1.6996975E-1,1.4900766E-1,9.5547505E-2,4.6944186E-2,-9.6779745E-3,3.5119113E-2,-4.0226113E-2,1.4307106E-2,-1.721392E-1,-1.085507E-2,-9.3721926E-2,-1.3261722E-1,-1.758781E-1,-2.3079653E-1],"categories":[],"categories_nodes":[],"categories_segments":[],"categories_sizes":[],"default_left":[0,0,0,0,0,0,0,0,0,0,0,0,0,0,0,0,0,0,0,0,0,0,0,0,0,0,0,0,0,0,0],"id":30,"left_children":[1,3,5,7,9,11,13,15,17,19,21,23,25,27,29,-1,-1,-1,-1,-1,-1,-1,-1,-1,-1,-1,-1,-1,-1,-1,-1],"loss_changes":[1.4890146E4,1.8048706E3,1.125395E3,2.994336E1,3.7094788E1,1.6186172E1,3.2616113E2,1.0301608E1,2.713086E1,1.9499146E1,4.254122E1,2.4520721E1,1.2884647E1,3.7937744E1,6.195508E1,0E0,0E0,0E0,0E0,0E0,0E0,0E0,0E0,0E0,0E0,0E0,0E0,0E0,0E0,0E0,0E0],"parents":[2147483647,0,0,1,1,2,2,3,3,4,4,5,5,6,6,7,7,8,8,9,9,10,10,11,11,12,12,13,13,14,14],"right_children":[2,4,6,8,10,12,14,16,18,20,22,24,26,28,30,-1,-1,-1,-1,-1,-1,-1,-1,-1,-1,-1,-1,-1,-1,-1,-1],"split_conditions":[4E0,3E0,5E0,2.7E1,1.3E1,1.3E2,6E0,2E0,1.5E1,1.8E1,3E0,1.06E2,8E0,2.8E1,1.5E1,1.3731016E-1,2.2193743E-2,1.6996975E-1,1.4900766E-1,9.5547505E-2,4.6944186E-2,-9.6779745E-3,3.5119113E-2,-4.0226113E-2,1.4307106E-2,-1.721392E-1,-1.085507E-2,-9.3721926E-2,-1.3261722E-1,-1.758781E-1,-2.3079653E-1],"split_indices":[11,11,11,1,3,1,11,9,5,2,10,1,10,1,6,0,0,0,0,0,0,0,0,0,0,0,0,0,0,0,0],"split_type":[0,0,0,0,0,0,0,0,0,0,0,0,0,0,0,0,0,0,0,0,0,0,0,0,0,0,0,0,0,0,0],"sum_hessian":[2.524E3,1.312E3,1.212E3,8.56E2,4.56E2,2.73E2,9.39E2,9E0,8.47E2,1.43E2,3.13E2,2.68E2,5E0,5.22E2,4.17E2,2E0,7E0,4.17E2,4.3E2,2.6E1,1.17E2,6.7E1,2.46E2,2.46E2,2.2E1,3E0,2E0,8.7E1,4.35E2,3.41E2,7.6E1],"tree_param":{"num_deleted":"0","num_feature":"14","num_nodes":"31","size_leaf_vector":"1"}},{"base_weights":[2.8851993E-2,1.0792964E0,-1.5804576E0,-2.6153836E0,2.1234155E0,-6.024693E-1,-1.9505876E0,-2.7436275E0,1.8653805E0,2.1605806E0,1.3567415E-1,-2.335394E0,1.2783096E0,-3.765586E0,-1.9250847E0,-1.5937841E-1,-1.01079956E-1,-1.2092658E-1,1.6193376E-1,-5.161977E-2,1.084825E-1,1.7804566E-1,-1.8005319E-2,-1.3122132E-1,6.9892764E-2,1.1873479E-1,-4.5925274E-2,-2.1921591E-1,-5.3334065E-2,-1.0364796E-1,-8.9535825E-2],"categories":[],"categories_nodes":[],"categories_segments":[],"categories_sizes":[],"default_left":[0,0,0,0,0,0,0,0,0,0,0,0,0,0,0,0,0,0,0,0,0,0,0,0,0,0,0,0,0,0,0],"id":31,"left_children":[1,3,5,7,9,11,13,15,17,19,21,23,25,27,29,-1,-1,-1,-1,-1,-1,-1,-1,-1,-1,-1,-1,-1,-1,-1,-1],"loss_changes":[4.280336E3,5.9155293E3,3.6080762E2,1.9934326E2,8.798682E1,9.025377E2,2.6309326E1,9.901294E1,6.6663574E1,3.6208496E1,4.0340145E1,1.5904895E2,3.2251935E2,1.0352432E1,1.0534424E1,0E0,0E0,0E0,0E0,0E0,0E0,0E0,0E0,0E0,0E0,0E0,0E0,0E0,0E0,0E0,0E0],"parents":[2147483647,0,0,1,1,2,2,3,3,4,4,5,5,6,6,7,7,8,8,9,9,10,10,11,11,12,12,13,13,14,14],"right_children":[2,4,6,8,10,12,14,16,18,20,22,24,26,28,30,-1,-1,-1,-1,-1,-1,-1,-1,-1,-1,-1,-1,-1,-1,-1,-1],"split_conditions":[1.4E3,2.8E1,5.6E1,3E0,5.9E1,2.9E1,1.9E1,8.33E2,4E0,6E0,1E3,1.6E3,1.9E1,3.3E1,2.9E1,-1.5937841E-1,-1.01079956E-1,-1.2092658E-1,1.6193376E-1,-5.161977E-2,1.084825E-1,1.7804566E-1,-1.8005319E-2,-1.3122132E-1,6.9892764E-2,1.1873479E-1,-4.5925274E-2,-2.1921591E-1,-5.3334065E-2,-1.0364796E-1,-8.9535825E-2],"split_indices":[13,1,1,10,1,1,5,13,12,7,13,13,3,2,3,0,0,0,0,0,0,0,0,0,0,0,0,0,0,0,0],"split_type":[0,0,0,0,0,0,0,0,0,0,0,0,0,0,0,0,0,0,0,0,0,0,0,0,0,0,0,0,0,0,0],"sum_hessian":[2.53E3,1.531E3,9.99E2,3.37E2,1.194E3,2.75E2,7.24E2,3.28E2,9E0,1.172E3,2.2E1,1.43E2,1.32E2,8E0,7.16E2,2.01E2,1.27E2,2E0,7E0,3E0,1.169E3,2E0,2E1,1.33E2,1E1,8.8E1,4.4E1,6E0,2E0,3.34E2,3.82E2],"tree_param":{"num_deleted":"0","num_feature":"14","num_nodes":"31","size_leaf_vector":"1"}},{"base_weights":[-7.399683E-3,2.1012926E0,-2.2829733E0,2.9062104E0,6.043727E-1,-5.96071E-1,-2.7792263E0,2.9200132E0,4.756473E-1,5.048242E-1,1.1073296E0,1.0917076E0,-6.3110995E-1,-2.1810522E0,-3.5009294E0,1.4344743E-1,1.8460241E-1,-3.625266E-2,6.2863044E-2,4.5078825E-2,1.3721439E-2,9.473269E-2,3.3788726E-2,1.1124357E-2,7.35348E-2,-4.9754262E-2,-2.3300199E-2,-6.6575296E-2,-1.1729447E-1,-1.6434735E-1,-2.188646E-1],"categories":[],"categories_nodes":[],"categories_segments":[],"categories_sizes":[],"default_left":[0,0,0,0,0,0,0,0,0,0,0,0,0,0,0,0,0,0,0,0,0,0,0,0,0,0,0,0,0,0,0],"id":32,"left_children":[1,3,5,7,9,11,13,15,17,19,21,23,25,27,29,-1,-1,-1,-1,-1,-1,-1,-1,-1,-1,-1,-1,-1,-1,-1,-1],"loss_changes":[1.2101777E4,1.5754541E3,1.0137827E3,2.7161133E1,2.242247E1,1.7070229E1,3.968711E2,2.2760254E1,6.542483E0,3.4945396E1,2.4202667E1,1.6493363E0,1.5881981E1,6.899512E1,6.493506E1,0E0,0E0,0E0,0E0,0E0,0E0,0E0,0E0,0E0,0E0,0E0,0E0,0E0,0E0,0E0,0E0],"parents":[2147483647,0,0,1,1,2,2,3,3,4,4,5,5,6,6,7,7,8,8,9,9,10,10,11,11,12,12,13,13,14,14],"right_children":[2,4,6,8,10,12,14,16,18,20,22,24,26,28,30,-1,-1,-1,-1,-1,-1,-1,-1,-1,-1,-1,-1,-1,-1,-1,-1],"split_conditions":[4E0,3E0,5E0,1.9E1,1.8E1,1E3,6E0,2.9E1,2.5E1,1.3E1,1.9E1,9E0,4E0,9E0,2.9E1,1.4344743E-1,1.8460241E-1,-3.625266E-2,6.2863044E-2,4.5078825E-2,1.3721439E-2,9.473269E-2,3.3788726E-2,1.1124357E-2,7.35348E-2,-4.9754262E-2,-2.3300199E-2,-6.6575296E-2,-1.1729447E-1,-1.6434735E-1,-2.188646E-1],"split_indices":[11,11,11,7,3,0,11,4,5,3,5,3,12,6,1,0,0,0,0,0,0,0,0,0,0,0,0,0,0,0,0],"split_type":[0,0,0,0,0,0,0,0,0,0,0,0,0,0,0,0,0,0,0,0,0,0,0,0,0,0,0,0,0,0,0],"sum_hessian":[2.52E3,1.308E3,1.212E3,8.5E2,4.58E2,2.76E2,9.36E2,8.45E2,5E0,3.84E2,7.4E1,5E0,2.71E2,5.14E2,4.22E2,7.97E2,4.8E1,2E0,3E0,1.4E2,2.44E2,2.5E1,4.9E1,2E0,3E0,8.3E1,1.88E2,8.5E1,4.29E2,3.43E2,7.9E1],"tree_param":{"num_deleted":"0","num_feature":"14","num_nodes":"31","size_leaf_vector":"1"}},{"base_weights":[-1.1857374E-2,1.9726317E0,-2.2015154E0,2.6961517E0,5.874985E-1,-6.379368E-1,-2.6482863E0,2.7171865E0,1.4734485E0,5.347986E-1,1.9262353E0,-1.5472105E0,-5.5103666E-1,-2.1395116E0,-3.2677314E0,1.3333383E-1,1.830555E-1,1.50773395E-2,1.5522578E-1,4.365318E-2,1.8448425E-2,-7.632222E-2,1.1187153E-1,2.8544713E-2,-8.347189E-2,-1.0424602E-2,-3.707321E-2,-8.127201E-2,-1.1189299E-1,-1.5335502E-1,-2.056622E-1],"categories":[],"categories_nodes":[],"categories_segments":[],"categories_sizes":[],"default_left":[0,0,0,0,0,0,0,0,0,0,0,0,0,0,0,0,0,0,0,0,0,0,0,0,0,0,0,0,0,0,0],"id":33,"left_children":[1,3,5,7,9,11,13,15,17,19,21,23,25,27,29,-1,-1,-1,-1,-1,-1,-1,-1,-1,-1,-1,-1,-1,-1,-1,-1],"loss_changes":[1.1050229E4,1.335313E3,8.428711E2,1.8525879E1,3.135286E1,2.0481743E1,2.892578E2,3.1239746E1,3.1558495E1,2.452774E1,2.1681087E1,6.907543E0,1.6022438E1,2.260205E1,5.8970703E1,0E0,0E0,0E0,0E0,0E0,0E0,0E0,0E0,0E0,0E0,0E0,0E0,0E0,0E0,0E0,0E0],"parents":[2147483647,0,0,1,1,2,2,3,3,4,4,5,5,6,6,7,7,8,8,9,9,10,10,11,11,12,12,13,13,14,14],"right_children":[2,4,6,8,10,12,14,16,18,20,22,24,26,28,30,-1,-1,-1,-1,-1,-1,-1,-1,-1,-1,-1,-1,-1,-1,-1,-1],"split_conditions":[4E0,3E0,5E0,1.3E1,6E0,3E0,6E0,2.9E1,5E0,1.3E1,1.2E1,6E0,4E0,1.3E1,1.4E1,1.3333383E-1,1.830555E-1,1.50773395E-2,1.5522578E-1,4.365318E-2,1.8448425E-2,-7.632222E-2,1.1187153E-1,2.8544713E-2,-8.347189E-2,-1.0424602E-2,-3.707321E-2,-8.127201E-2,-1.1189299E-1,-1.5335502E-1,-2.056622E-1],"split_indices":[11,11,11,8,12,12,11,4,12,3,3,4,10,3,4,0,0,0,0,0,0,0,0,0,0,0,0,0,0,0,0],"split_type":[0,0,0,0,0,0,0,0,0,0,0,0,0,0,0,0,0,0,0,0,0,0,0,0,0,0,0,0,0,0,0],"sum_hessian":[2.541E3,1.333E3,1.208E3,8.75E2,4.58E2,2.69E2,9.39E2,8.59E2,1.6E1,4.42E2,1.6E1,2.2E1,2.47E2,5.18E2,4.21E2,8.19E2,4E1,1E1,6E0,1.44E2,2.98E2,1E0,1.5E1,1E0,2.1E1,8.9E1,1.58E2,8.6E1,4.32E2,3.44E2,7.7E1],"tree_param":{"num_deleted":"0","num_feature":"14","num_nodes":"31","size_leaf_vector":"1"}},{"base_weights":[6.564092E-2,1.9085383E0,-1.9880149E0,2.6130838E0,5.870138E-1,-1.4017361E0,-3.0912979E0,1.2392015E0,2.653603E0,-1.4847807E0,6.1706895E-1,-5.970346E-1,-1.852207E0,-2.921214E0,-1.9275509E-1,1.05522215E-1,-1.2861093E-3,1.3958529E-1,1.1946537E-1,-4.564489E-2,-1.2290197E-1,3.6386862E-2,2.9856627E-4,1.4349139E-2,-3.7981138E-2,-4.4552024E-2,-1.0346698E-1,-1.7933306E-1,-1.3554442E-1],"categories":[],"categories_nodes":[],"categories_segments":[],"categories_sizes":[],"default_left":[0,0,0,0,0,0,0,0,0,0,0,0,0,0,0,0,0,0,0,0,0,0,0,0,0,0,0,0,0],"id":34,"left_children":[1,3,5,7,9,11,13,15,17,19,21,23,25,27,-1,-1,-1,-1,-1,-1,-1,-1,-1,-1,-1,-1,-1,-1,-1],"loss_changes":[9.658507E3,1.2507607E3,7.763921E2,4.5532715E1,3.011998E1,2.8526477E2,4.3041016E1,2.9809788E1,2.4391602E1,1.6521912E0,3.1307938E1,4.1181282E1,1.0375867E2,3.8703613E1,0E0,0E0,0E0,0E0,0E0,0E0,0E0,0E0,0E0,0E0,0E0,0E0,0E0,0E0,0E0],"parents":[2147483647,0,0,1,1,2,2,3,3,4,4,5,5,6,6,7,7,8,8,9,9,10,10,11,11,12,12,13,13],"right_children":[2,4,6,8,10,12,14,16,18,20,22,24,26,28,-1,-1,-1,-1,-1,-1,-1,-1,-1,-1,-1,-1,-1,-1,-1],"split_conditions":[4E0,3E0,6E0,2E0,6E0,5E0,2.9E1,9E0,2.9E1,1.6E1,5E0,3.4E1,2.8E1,1E3,-1.9275509E-1,1.05522215E-1,-1.2861093E-3,1.3958529E-1,1.1946537E-1,-4.564489E-2,-1.2290197E-1,3.6386862E-2,2.9856627E-4,1.4349139E-2,-3.7981138E-2,-4.4552024E-2,-1.0346698E-1,-1.7933306E-1,-1.3554442E-1],"split_indices":[11,11,11,10,7,11,1,5,2,2,10,2,1,0,0,0,0,0,0,0,0,0,0,0,0,0,0,0,0],"split_type":[0,0,0,0,0,0,0,0,0,0,0,0,0,0,0,0,0,0,0,0,0,0,0,0,0,0,0,0,0],"sum_hessian":[2.55E3,1.344E3,1.206E3,8.76E2,4.68E2,7.89E2,4.17E2,2.6E1,8.5E2,6E0,4.62E2,2.84E2,5.05E2,3.45E2,7.2E1,1.5E1,1.1E1,5.52E2,2.98E2,5E0,1E0,3.91E2,7.1E1,4.4E1,2.4E2,9.4E1,4.11E2,7.9E1,2.66E2],"tree_param":{"num_deleted":"0","num_feature":"14","num_nodes":"29","size_leaf_vector":"1"}},{"base_weights":[3.66058E-2,1.830524E0,-1.9291794E0,2.5424163E0,5.053761E-1,-5.42901E-1,-2.3397322E0,2.7674792E0,2.32479E0,-4.1608103E-3,6.826184E-1,-1.6376E0,-4.424284E-1,-1.8459425E0,-2.9745755E0,1.2416538E-1,1.5619412E-1,1.0646985E-1,1.3788486E-1,9.155945E-2,-1.2101899E-2,2.7277052E-2,5.6493383E-2,2.7472353E-2,-8.80993E-2,8.0482485E-3,-2.7580708E-2,-5.7543676E-2,-9.949844E-2,-1.401485E-1,-1.867044E-1],"categories":[],"categories_nodes":[],"categories_segments":[],"categories_sizes":[],"default_left":[0,0,0,0,0,0,0,0,0,0,0,0,0,0,0,0,0,0,0,0,0,0,0,0,0,0,0,0,0,0,0],"id":35,"left_children":[1,3,5,7,9,11,13,15,17,19,21,23,25,27,29,-1,-1,-1,-1,-1,-1,-1,-1,-1,-1,-1,-1,-1,-1,-1,-1],"loss_changes":[8.950155E3,1.2505571E3,6.87958E2,3.5835938E1,4.1997673E1,2.9851921E1,2.8729883E2,3.4678467E1,3.1768799E1,5.327034E1,2.0534775E1,7.2249947E0,1.6954575E1,5.0566895E1,4.2580322E1,0E0,0E0,0E0,0E0,0E0,0E0,0E0,0E0,0E0,0E0,0E0,0E0,0E0,0E0,0E0,0E0],"parents":[2147483647,0,0,1,1,2,2,3,3,4,4,5,5,6,6,7,7,8,8,9,9,10,10,11,11,12,12,13,13,14,14],"right_children":[2,4,6,8,10,12,14,16,18,20,22,24,26,28,30,-1,-1,-1,-1,-1,-1,-1,-1,-1,-1,-1,-1,-1,-1,-1,-1],"split_conditions":[4E0,3E0,5E0,1.5E1,3E0,3E0,6E0,1E1,3.4E1,2E0,1.166E3,3E0,3.4E1,2E3,1.5E1,1.2416538E-1,1.5619412E-1,1.0646985E-1,1.3788486E-1,9.155945E-2,-1.2101899E-2,2.7277052E-2,5.6493383E-2,2.7472353E-2,-8.80993E-2,8.0482485E-3,-2.7580708E-2,-5.7543676E-2,-9.949844E-2,-1.401485E-1,-1.867044E-1],"split_indices":[11,11,11,5,10,12,11,6,2,10,13,7,2,0,6,0,0,0,0,0,0,0,0,0,0,0,0,0,0,0,0],"split_type":[0,0,0,0,0,0,0,0,0,0,0,0,0,0,0,0,0,0,0,0,0,0,0,0,0,0,0,0,0,0,0],"sum_hessian":[2.536E3,1.326E3,1.21E3,8.62E2,4.64E2,2.77E2,9.33E2,4.18E2,4.44E2,1.2E2,3.44E2,2.2E1,2.55E2,5.27E2,4.06E2,2.37E2,1.81E2,3.1E2,1.34E2,1.3E1,1.07E2,2.65E2,7.9E1,1E0,2.1E1,3.9E1,2.16E2,9.2E1,4.35E2,3.35E2,7.1E1],"tree_param":{"num_deleted":"0","num_feature":"14","num_nodes":"31","size_leaf_vector":"1"}},{"base_weights":[6.892601E-3,1.7118248E0,-1.8283408E0,2.3656611E0,4.66219E-1,-4.539249E-1,-2.2480626E0,4.4311064E-1,2.374049E0,3.6463302E-1,1.0843232E0,-4.171011E-1,-2.1212647E0,-1.7421497E0,-2.8620262E0,-8.349037E-2,6.9439605E-2,1.2410678E-1,1.08644046E-1,3.636138E-2,7.6434813E-3,7.9926245E-2,-2.2343274E-3,-2.4583125E-2,4.312659E-2,-1.569424E-1,-2.8699557E-3,-5.247159E-2,-9.4349064E-2,-1.3493349E-1,-1.7706297E-1],"categories":[],"categories_nodes":[],"categories_segments":[],"categories_sizes":[],"default_left":[0,0,0,0,0,0,0,0,0,0,0,0,0,0,0,0,0,0,0,0,0,0,0,0,0,0,0,0,0,0,0],"id":36,"left_children":[1,3,5,7,9,11,13,15,17,19,21,23,25,27,29,-1,-1,-1,-1,-1,-1,-1,-1,-1,-1,-1,-1,-1,-1,-1,-1],"loss_changes":[7.991335E3,1.0771924E3,7.085327E2,1.29453125E1,2.829998E1,1.6859184E1,2.8761084E2,1.23097515E1,1.3393066E1,3.0141834E1,3.7225914E1,2.752087E1,1.2420759E1,5.008972E1,3.7489014E1,0E0,0E0,0E0,0E0,0E0,0E0,0E0,0E0,0E0,0E0,0E0,0E0,0E0,0E0,0E0,0E0],"parents":[2147483647,0,0,1,1,2,2,3,3,4,4,5,5,6,6,7,7,8,8,9,9,10,10,11,11,12,12,13,13,14,14],"right_children":[2,4,6,8,10,12,14,16,18,20,22,24,26,28,30,-1,-1,-1,-1,-1,-1,-1,-1,-1,-1,-1,-1,-1,-1,-1,-1],"split_conditions":[4E0,3E0,5E0,6E2,1.8E1,1.28E2,6E0,9E0,1.5E1,1.3E1,5E0,5.2E1,8E0,2.8E1,2.8E1,-8.349037E-2,6.9439605E-2,1.2410678E-1,1.08644046E-1,3.636138E-2,7.6434813E-3,7.9926245E-2,-2.2343274E-3,-2.4583125E-2,4.312659E-2,-1.569424E-1,-2.8699557E-3,-5.247159E-2,-9.4349064E-2,-1.3493349E-1,-1.7706297E-1],"split_indices":[11,11,11,13,3,1,11,6,3,3,10,3,10,1,1,0,0,0,0,0,0,0,0,0,0,0,0,0,0,0,0],"split_type":[0,0,0,0,0,0,0,0,0,0,0,0,0,0,0,0,0,0,0,0,0,0,0,0,0,0,0,0,0,0,0],"sum_hessian":[2.552E3,1.323E3,1.229E3,8.67E2,4.56E2,2.88E2,9.41E2,4E0,8.63E2,3.93E2,6.3E1,2.83E2,5E0,5.18E2,4.23E2,1E0,3E0,5.54E2,3.09E2,1.44E2,2.49E2,4.3E1,2E1,2.68E2,1.5E1,3E0,2E0,9.1E1,4.27E2,3.45E2,7.8E1],"tree_param":{"num_deleted":"0","num_feature":"14","num_nodes":"31","size_leaf_vector":"1"}},{"base_weights":[-3.3274736E-2,7.534731E-1,-1.2394824E0,-2.2046945E0,1.5045588E0,-5.006138E-1,-1.5213854E0,-2.7558367E0,-1.7669294E0,1.0534312E1,1.4810054E0,-1.7345438E0,8.3913463E-1,-2.0904057E-1,-1.5081362E0,-1.476094E-1,-9.095635E-2,-9.2242405E-2,1.0126527E-1,-1.1990871E-1,9.0998214E-1,-2.7992506E-2,7.6747924E-2,-9.369923E-2,4.350984E-2,8.330808E-2,-2.8352663E-2,-8.108417E-2,-6.40688E-2],"categories":[],"categories_nodes":[],"categories_segments":[],"categories_sizes":[],"default_left":[0,0,0,0,0,0,0,0,0,0,0,0,0,0,0,0,0,0,0,0,0,0,0,0,0,0,0,0,0],"id":37,"left_children":[1,3,5,7,9,11,13,15,17,19,21,23,25,-1,27,-1,-1,-1,-1,-1,-1,-1,-1,-1,-1,-1,-1,-1,-1],"loss_changes":[2.3895198E3,3.3893977E3,2.0627783E2,6.968323E1,2.4301904E2,4.5772656E2,1.902893E1,1.945935E1,5.544641E1,3.410413E2,1.3453345E2,5.3932526E1,1.5561786E2,0E0,1.6383179E1,0E0,0E0,0E0,0E0,0E0,0E0,0E0,0E0,0E0,0E0,0E0,0E0,0E0,0E0],"parents":[2147483647,0,0,1,1,2,2,3,3,4,4,5,5,6,6,7,7,8,8,9,9,10,10,11,11,12,12,14,14],"right_children":[2,4,6,8,10,12,14,16,18,20,22,24,26,-1,28,-1,-1,-1,-1,-1,-1,-1,-1,-1,-1,-1,-1,-1,-1],"split_conditions":[1.4E3,2.7E1,5.6E1,1.9E1,1.4E1,2.9E1,6E0,8.33E2,3E0,5E0,2.8E1,1.6E3,1.8E1,-2.0904057E-1,2.666E3,-1.476094E-1,-9.095635E-2,-9.2242405E-2,1.0126527E-1,-1.1990871E-1,9.0998214E-1,-2.7992506E-2,7.6747924E-2,-9.369923E-2,4.350984E-2,8.330808E-2,-2.8352663E-2,-8.108417E-2,-6.40688E-2],"split_indices":[13,1,1,1,2,1,9,13,10,7,1,13,3,0,13,0,0,0,0,0,0,0,0,0,0,0,0,0,0],"split_type":[0,0,0,0,0,0,0,0,0,0,0,0,0,0,0,0,0,0,0,0,0,0,0,0,0,0,0,0,0],"sum_hessian":[2.516E3,1.523E3,9.93E2,3.08E2,1.215E3,2.75E2,7.18E2,1.34E2,1.74E2,2E0,1.213E3,1.43E2,1.32E2,2E0,7.16E2,1.09E2,2.5E1,1.71E2,3E0,1E0,1E0,3.1E1,1.182E3,1.36E2,7E0,8.3E1,4.9E1,4.73E2,2.43E2],"tree_param":{"num_deleted":"0","num_feature":"14","num_nodes":"29","size_leaf_vector":"1"}},{"base_weights":[4.271549E-2,1.5823087E0,-1.6518885E0,2.2179613E0,3.8962033E-1,-3.7658256E-1,-2.0222633E0,2.1397045E0,2.7737782E0,2.8804532E-1,1.045212E0,-1.6233884E-1,-6.4217854E-1,-1.6284163E0,-2.5308523E0,1.0826726E-1,-2.8181328E-2,1.4309473E-1,-5.7338554E-2,3.3012833E-2,3.9679045E-3,9.58053E-2,3.0791888E-2,-1.4807261E-2,7.95951E-2,-5.7775922E-2,1.2823971E-3,-3.3825308E-2,-9.142663E-2,-1.1945176E-1,-1.6212277E-1],"categories":[],"categories_nodes":[],"categories_segments":[],"categories_sizes":[],"default_left":[0,0,0,0,0,0,0,0,0,0,0,0,0,0,0,0,0,0,0,0,0,0,0,0,0,0,0,0,0,0,0],"id":38,"left_children":[1,3,5,7,9,11,13,15,17,19,21,23,25,27,29,-1,-1,-1,-1,-1,-1,-1,-1,-1,-1,-1,-1,-1,-1,-1,-1],"loss_changes":[6.6425205E3,1.0104885E3,5.717158E2,3.1906738E1,3.0664085E1,1.5486973E1,1.8396655E2,5.4385742E1,3.9210266E1,3.1328602E1,2.2004234E1,3.6384907E1,4.185392E1,1.00105225E2,3.342798E1,0E0,0E0,0E0,0E0,0E0,0E0,0E0,0E0,0E0,0E0,0E0,0E0,0E0,0E0,0E0,0E0],"parents":[2147483647,0,0,1,1,2,2,3,3,4,4,5,5,6,6,7,7,8,8,9,9,10,10,11,11,12,12,13,13,14,14],"right_children":[2,4,6,8,10,12,14,16,18,20,22,24,26,28,30,-1,-1,-1,-1,-1,-1,-1,-1,-1,-1,-1,-1,-1,-1,-1,-1],"split_conditions":[4E0,3E0,5E0,3.5E1,1.8E1,1.4E1,6E0,5.5E1,9E0,1E3,1.9E1,3.5E1,1.7E1,2.8E1,2.9E1,1.0826726E-1,-2.8181328E-2,1.4309473E-1,-5.7338554E-2,3.3012833E-2,3.9679045E-3,9.58053E-2,3.0791888E-2,-1.4807261E-2,7.95951E-2,-5.7775922E-2,1.2823971E-3,-3.3825308E-2,-9.142663E-2,-1.1945176E-1,-1.6212277E-1],"split_indices":[11,11,11,2,3,8,11,1,9,13,5,4,8,1,1,0,0,0,0,0,0,0,0,0,0,0,0,0,0,0,0],"split_type":[0,0,0,0,0,0,0,0,0,0,0,0,0,0,0,0,0,0,0,0,0,0,0,0,0,0,0,0,0,0,0],"sum_hessian":[2.544E3,1.333E3,1.211E3,8.69E2,4.64E2,2.73E2,9.38E2,7.66E2,1.03E2,4.03E2,6.1E1,1.52E2,1.21E2,5.31E2,4.07E2,7.59E2,7E0,1.01E2,2E0,1.44E2,2.59E2,1.9E1,4.2E1,1.42E2,1E1,6.8E1,5.3E1,9.3E1,4.38E2,3.43E2,6.4E1],"tree_param":{"num_deleted":"0","num_feature":"14","num_nodes":"31","size_leaf_vector":"1"}},{"base_weights":[3.8269687E-2,1.5233353E0,-1.6010883E0,2.083593E0,4.482269E-1,-3.4238598E-1,-1.9802223E0,2.1248949E0,9.9340564E-1,8.559636E-1,2.671672E-1,-5.0786895E-1,1.7581303E-1,-1.5669029E0,-2.5072138E0,1.1631532E-1,9.442647E-2,-1.0760654E-2,7.52982E-2,1.3258678E-1,3.782545E-2,1.8445337E-4,4.0717777E-2,-6.2526683E-3,-3.5258867E-2,1.7890079E-2,-1.11260034E-1,-1.803097E-1,-7.741372E-2,-1.1854108E-1,-1.5102719E-1],"categories":[],"categories_nodes":[],"categories_segments":[],"categories_sizes":[],"default_left":[0,0,0,0,0,0,0,0,0,0,0,0,0,0,0,0,0,0,0,0,0,0,0,0,0,0,0,0,0,0,0],"id":39,"left_children":[1,3,5,7,9,11,13,15,17,19,21,23,25,27,29,-1,-1,-1,-1,-1,-1,-1,-1,-1,-1,-1,-1,-1,-1,-1,-1],"loss_changes":[6.212987E3,8.055962E2,5.7818604E2,3.7512695E1,3.373066E1,2.427166E1,1.9907593E2,3.5929443E1,2.1386677E1,2.3176216E1,4.613209E1,1.607582E1,3.0946213E1,1.436084E1,2.1404541E1,0E0,0E0,0E0,0E0,0E0,0E0,0E0,0E0,0E0,0E0,0E0,0E0,0E0,0E0,0E0,0E0],"parents":[2147483647,0,0,1,1,2,2,3,3,4,4,5,5,6,6,7,7,8,8,9,9,10,10,11,11,12,12,13,13,14,14],"right_children":[2,4,6,8,10,12,14,16,18,20,22,24,26,28,30,-1,-1,-1,-1,-1,-1,-1,-1,-1,-1,-1,-1,-1,-1,-1,-1],"split_conditions":[4E0,3E0,5E0,1.714E3,1.3E1,3E3,6E0,2.7E1,4E0,5E0,1.166E3,4E0,6.2E1,3E0,2.8E1,1.1631532E-1,9.442647E-2,-1.0760654E-2,7.52982E-2,1.3258678E-1,3.782545E-2,1.8445337E-4,4.0717777E-2,-6.2526683E-3,-3.5258867E-2,1.7890079E-2,-1.11260034E-1,-1.803097E-1,-7.741372E-2,-1.1854108E-1,-1.5102719E-1],"split_indices":[11,11,11,13,3,13,11,2,12,8,13,10,3,5,1,0,0,0,0,0,0,0,0,0,0,0,0,0,0,0,0],"split_type":[0,0,0,0,0,0,0,0,0,0,0,0,0,0,0,0,0,0,0,0,0,0,0,0,0,0,0,0,0,0,0],"sum_hessian":[2.55E3,1.338E3,1.212E3,8.79E2,4.59E2,2.81E2,9.31E2,8.46E2,3.3E1,1.4E2,3.19E2,2.13E2,6.8E1,5.24E2,4.07E2,4.52E2,3.94E2,1E1,2.3E1,6E0,1.34E2,2.16E2,1.03E2,7.3E1,1.4E2,6.4E1,4E0,3E0,5.21E2,3.26E2,8.1E1],"tree_param":{"num_deleted":"0","num_feature":"14","num_nodes":"31","size_leaf_vector":"1"}},{"base_weights":[3.9239217E-2,1.4536783E0,-1.5109435E0,1.9850552E0,4.6664762E-1,-1.064535E0,-2.365606E0,2.0210133E0,1.0215893E0,4.0800706E-1,1.527168E0,-3.3865696E-1,-1.4200432E0,-2.300913E0,-3.831038E0,1.0150754E-1,-5.8574803E-2,-5.8659244E-2,8.288062E-2,1.9079687E-2,1.3201065E-1,8.7628365E-2,-3.1740796E-2,-2.4173826E-2,4.187215E-3,-3.38305E-2,-7.806228E-2,-1.4296731E-1,-1.0759518E-1,-2.0704031E-1,-9.332659E-2],"categories":[],"categories_nodes":[],"categories_segments":[],"categories_sizes":[],"default_left":[0,0,0,0,0,0,0,0,0,0,0,0,0,0,0,0,0,0,0,0,0,0,0,0,0,0,0,0,0,0,0],"id":40,"left_children":[1,3,5,7,9,11,13,15,17,19,21,23,25,27,29,-1,-1,-1,-1,-1,-1,-1,-1,-1,-1,-1,-1,-1,-1,-1,-1],"loss_changes":[5.5561514E3,6.940166E2,4.5874976E2,2.776416E1,2.8295044E1,2.0493134E2,3.0433838E1,2.6560791E1,4.8010284E1,2.5052818E1,1.2807987E1,1.6128714E1,5.5E1,2.704834E1,2.007721E0,0E0,0E0,0E0,0E0,0E0,0E0,0E0,0E0,0E0,0E0,0E0,0E0,0E0,0E0,0E0,0E0],"parents":[2147483647,0,0,1,1,2,2,3,3,4,4,5,5,6,6,7,7,8,8,9,9,10,10,11,11,12,12,13,13,14,14],"right_children":[2,4,6,8,10,12,14,16,18,20,22,24,26,28,30,-1,-1,-1,-1,-1,-1,-1,-1,-1,-1,-1,-1,-1,-1,-1,-1],"split_conditions":[4E0,3E0,6E0,1.714E3,2.1E1,5E0,2.6E1,9E0,4E0,1.8E1,1.5E1,3.4E1,7E0,1E3,5E0,1.0150754E-1,-5.8574803E-2,-5.8659244E-2,8.288062E-2,1.9079687E-2,1.3201065E-1,8.7628365E-2,-3.1740796E-2,-2.4173826E-2,4.187215E-3,-3.38305E-2,-7.806228E-2,-1.4296731E-1,-1.0759518E-1,-2.0704031E-1,-9.332659E-2],"split_indices":[11,11,11,13,3,11,6,9,12,7,9,3,7,0,12,0,0,0,0,0,0,0,0,0,0,0,0,0,0,0,0],"split_type":[0,0,0,0,0,0,0,0,0,0,0,0,0,0,0,0,0,0,0,0,0,0,0,0,0,0,0,0,0,0,0],"sum_hessian":[2.532E3,1.324E3,1.208E3,8.6E2,4.64E2,7.95E2,4.13E2,8.28E2,3.2E1,4.41E2,2.3E1,2.62E2,5.33E2,3.98E2,1.5E1,8.26E2,2E0,7E0,2.5E1,4.37E2,4E0,2.1E1,2E0,1.95E2,6.7E1,8.6E1,4.47E2,8E1,3.18E2,1.2E1,3E0],"tree_param":{"num_deleted":"0","num_feature":"14","num_nodes":"31","size_leaf_vector":"1"}},{"base_weights":[-3.7299614E-2,1.3458235E0,-1.5357474E0,1.879358E0,3.5684898E-1,-5.059904E-1,-1.8264668E0,2.1786416E0,1.7234766E0,2.9723167E-1,1.5329747E0,-1.8126169E-1,-6.61074E-1,-1.482251E0,-2.2487376E0,9.719659E-2,1.484876E-1,9.201777E-2,6.983579E-2,1.3207006E-2,1.561685E-1,1.1124221E-1,3.8550656E-2,-1.9976404E-2,5.5435013E-2,-4.314537E-2,-9.757197E-3,-7.116421E-2,-9.840162E-2,-1.042761E-1,-1.460208E-1],"categories":[],"categories_nodes":[],"categories_segments":[],"categories_sizes":[],"default_left":[0,0,0,0,0,0,0,0,0,0,0,0,0,0,0,0,0,0,0,0,0,0,0,0,0,0,0,0,0,0,0],"id":41,"left_children":[1,3,5,7,9,11,13,15,17,19,21,23,25,27,29,-1,-1,-1,-1,-1,-1,-1,-1,-1,-1,-1,-1,-1,-1,-1,-1],"loss_changes":[5.229007E3,6.9160913E2,3.6161304E2,3.5993164E1,3.1868488E1,1.3376686E1,1.338794E2,4.7703247E1,1.9007568E1,4.032438E1,9.882526E0,2.5219824E1,1.6852898E1,1.2180298E1,4.0172607E1,0E0,0E0,0E0,0E0,0E0,0E0,0E0,0E0,0E0,0E0,0E0,0E0,0E0,0E0,0E0,0E0],"parents":[2147483647,0,0,1,1,2,2,3,3,4,4,5,5,6,6,7,7,8,8,9,9,10,10,11,11,12,12,13,13,14,14],"right_children":[2,4,6,8,10,12,14,16,18,20,22,24,26,28,30,-1,-1,-1,-1,-1,-1,-1,-1,-1,-1,-1,-1,-1,-1,-1,-1],"split_conditions":[4E0,3E0,5E0,7E0,2.1E1,4E0,6E0,9E0,1.166E3,1.8E1,2.4E1,1E1,1.7E1,3.5E3,2.8E1,9.719659E-2,1.484876E-1,9.201777E-2,6.983579E-2,1.3207006E-2,1.561685E-1,1.1124221E-1,3.8550656E-2,-1.9976404E-2,5.5435013E-2,-4.314537E-2,-9.757197E-3,-7.116421E-2,-9.840162E-2,-1.042761E-1,-1.460208E-1],"split_indices":[11,11,11,8,3,10,11,7,13,7,3,9,8,13,1,0,0,0,0,0,0,0,0,0,0,0,0,0,0,0,0],"split_type":[0,0,0,0,0,0,0,0,0,0,0,0,0,0,0,0,0,0,0,0,0,0,0,0,0,0,0,0,0,0,0],"sum_hessian":[2.521E3,1.311E3,1.21E3,8.51E2,4.6E2,2.67E2,9.43E2,2.87E2,5.64E2,4.39E2,2.1E1,8.7E1,1.8E2,5.22E2,4.21E2,2.24E2,6.3E1,4.12E2,1.52E2,4.35E2,4E0,1E1,1.1E1,7.5E1,1.2E1,1.25E2,5.5E1,4.69E2,5.3E1,3.42E2,7.9E1],"tree_param":{"num_deleted":"0","num_feature":"14","num_nodes":"31","size_leaf_vector":"1"}},{"base_weights":[5.3519765E-3,1.2885846E0,-1.3538523E0,1.8102533E0,3.0481923E-1,-9.4403005E-1,-2.17025E0,7.507223E-1,1.8408933E0,1.9368999E-1,9.3174446E-1,-3.1848395E-1,-1.2734052E0,-2.0785916E0,-1.8250112E-1,2.1000125E-2,1.0278725E-1,1.0063805E-1,8.191918E-2,2.7150124E-2,-1.3713492E-3,8.299894E-2,2.7777506E-2,-1.9118603E-2,2.5752902E-2,-2.9893164E-2,-7.018288E-2,-1.4793558E-1,-9.79917E-2],"categories":[],"categories_nodes":[],"categories_segments":[],"categories_sizes":[],"default_left":[0,0,0,0,0,0,0,0,0,0,0,0,0,0,0,0,0,0,0,0,0,0,0,0,0,0,0,0,0],"id":42,"left_children":[1,3,5,7,9,11,13,15,17,19,21,23,25,27,-1,-1,-1,-1,-1,-1,-1,-1,-1,-1,-1,-1,-1,-1,-1],"loss_changes":[4.4895073E3,6.789243E2,4.1617358E2,2.6699219E1,3.18676E1,1.7143115E2,4.8972046E1,1.0358099E1,2.5938232E1,3.0292551E1,1.7980877E1,1.5587177E1,4.7203857E1,3.5487305E1,0E0,0E0,0E0,0E0,0E0,0E0,0E0,0E0,0E0,0E0,0E0,0E0,0E0,0E0,0E0],"parents":[2147483647,0,0,1,1,2,2,3,3,4,4,5,5,6,6,7,7,8,8,9,9,10,10,11,11,12,12,13,13],"right_children":[2,4,6,8,10,12,14,16,18,20,22,24,26,28,-1,-1,-1,-1,-1,-1,-1,-1,-1,-1,-1,-1,-1,-1,-1],"split_conditions":[4E0,3E0,6E0,2E0,1.8E1,5E0,1.6E1,1.4E1,2.1E1,1.3E1,1.9E1,1.06E2,2.8E1,6E0,-1.8250112E-1,2.1000125E-2,1.0278725E-1,1.0063805E-1,8.191918E-2,2.7150124E-2,-1.3713492E-3,8.299894E-2,2.7777506E-2,-1.9118603E-2,2.5752902E-2,-2.9893164E-2,-7.018288E-2,-1.4793558E-1,-9.79917E-2],"split_indices":[11,11,11,10,3,11,8,4,4,3,5,1,1,4,0,0,0,0,0,0,0,0,0,0,0,0,0,0,0],"split_type":[0,0,0,0,0,0,0,0,0,0,0,0,0,0,0,0,0,0,0,0,0,0,0,0,0,0,0,0,0],"sum_hessian":[2.572E3,1.323E3,1.249E3,8.64E2,4.59E2,8.33E2,4.16E2,2.5E1,8.39E2,3.91E2,6.8E1,2.88E2,5.45E2,3.94E2,2.2E1,2.1E1,4E0,4.49E2,3.9E2,1.51E2,2.4E2,2.2E1,4.6E1,2.68E2,2E1,8.9E1,4.56E2,4.4E1,3.5E2],"tree_param":{"num_deleted":"0","num_feature":"14","num_nodes":"29","size_leaf_vector":"1"}},{"base_weights":[-9.962585E-4,1.2003783E0,-1.3165958E0,1.7152379E0,2.2899704E-1,-3.5127228E-1,-1.5967745E0,1.7460344E0,9.17519E-1,1.8193282E0,1.7822134E-1,-4.7716725E-1,6.337494E-2,-1.2601502E0,-2.0106654E0,8.4991336E-2,1.2457992E-1,-1.3807227E-2,7.1319245E-2,4.9594022E-2,1.555179E-1,6.3645295E-3,8.114796E-2,-2.2262482E-2,-1.2548949E-1,2.0643054E-2,-6.0713995E-2,-3.1923216E-2,-6.969269E-2,-1.3136235E-1,-9.400562E-2],"categories":[],"categories_nodes":[],"categories_segments":[],"categories_sizes":[],"default_left":[0,0,0,0,0,0,0,0,0,0,0,0,0,0,0,0,0,0,0,0,0,0,0,0,0,0,0,0,0,0,0],"id":43,"left_children":[1,3,5,7,9,11,13,15,17,19,21,23,25,27,29,-1,-1,-1,-1,-1,-1,-1,-1,-1,-1,-1,-1,-1,-1,-1,-1],"loss_changes":[3.9702856E3,6.5627136E2,3.2372437E2,1.9476318E1,3.6497833E1,1.4176983E1,1.268999E2,2.4186768E1,2.104598E1,1.1870537E1,3.2390053E1,1.2376835E1,2.9078777E1,4.1917725E1,2.8466553E1,0E0,0E0,0E0,0E0,0E0,0E0,0E0,0E0,0E0,0E0,0E0,0E0,0E0,0E0,0E0,0E0],"parents":[2147483647,0,0,1,1,2,2,3,3,4,4,5,5,6,6,7,7,8,8,9,9,10,10,11,11,12,12,13,13,14,14],"right_children":[2,4,6,8,10,12,14,16,18,20,22,24,26,28,30,-1,-1,-1,-1,-1,-1,-1,-1,-1,-1,-1,-1,-1,-1,-1,-1],"split_conditions":[4E0,3E0,5E0,1.714E3,2E0,3E3,6E0,1.4E3,4E0,1.3E1,6E0,2.857E3,4.7E1,2.8E1,1.8E1,8.4991336E-2,1.2457992E-1,-1.3807227E-2,7.1319245E-2,4.9594022E-2,1.555179E-1,6.3645295E-3,8.114796E-2,-2.2262482E-2,-1.2548949E-1,2.0643054E-2,-6.0713995E-2,-3.1923216E-2,-6.969269E-2,-1.3136235E-1,-9.400562E-2],"split_indices":[11,11,11,13,10,13,11,13,12,4,12,13,4,1,1,0,0,0,0,0,0,0,0,0,0,0,0,0,0,0,0],"split_type":[0,0,0,0,0,0,0,0,0,0,0,0,0,0,0,0,0,0,0,0,0,0,0,0,0,0,0,0,0,0,0],"sum_hessian":[2.51E3,1.312E3,1.198E3,8.57E2,4.55E2,2.7E2,9.28E2,8.24E2,3.3E1,1.3E1,4.42E2,2.07E2,6.3E1,5.14E2,4.14E2,7.79E2,4.5E1,1E1,2.3E1,9E0,4E0,4.28E2,1.4E1,2.05E2,2E0,5E1,1.3E1,9.2E1,4.22E2,6.9E1,3.45E2],"tree_param":{"num_deleted":"0","num_feature":"14","num_nodes":"31","size_leaf_vector":"1"}},{"base_weights":[2.185104E-2,1.1400722E0,-1.1789474E0,1.5789152E0,2.988611E-1,-2.142584E-1,-1.4544923E0,4.46736E-1,1.6012169E0,2.3987232E-1,1.3359174E0,-1.7460234E-1,-2.2969716E0,-1.1060606E0,-1.8788475E0,-1.9525433E-2,6.636853E-2,1.8663755E-2,8.07755E-2,1.3646485E-2,-8.912802E-2,1.549489E-1,2.1382917E-2,-1.2306375E-2,3.1818334E-2,-1.431506E-1,-8.202553E-4,-2.9328749E-2,-6.1223388E-2,-8.632392E-2,-1.3210855E-1],"categories":[],"categories_nodes":[],"categories_segments":[],"categories_sizes":[],"default_left":[0,0,0,0,0,0,0,0,0,0,0,0,0,0,0,0,0,0,0,0,0,0,0,0,0,0,0,0,0,0,0],"id":44,"left_children":[1,3,5,7,9,11,13,15,17,19,21,23,25,27,29,-1,-1,-1,-1,-1,-1,-1,-1,-1,-1,-1,-1,-1,-1,-1,-1],"loss_changes":[3.3944946E3,4.8275806E2,3.2371692E2,2.0999023E1,2.7208157E1,2.2064022E1,1.3809192E2,1.3789867E1,1.4192871E1,2.9034166E1,3.7106274E1,1.5701886E1,6.4074936E0,3.1451965E1,4.4985107E1,0E0,0E0,0E0,0E0,0E0,0E0,0E0,0E0,0E0,0E0,0E0,0E0,0E0,0E0,0E0,0E0],"parents":[2147483647,0,0,1,1,2,2,3,3,4,4,5,5,6,6,7,7,8,8,9,9,10,10,11,11,12,12,13,13,14,14],"right_children":[2,4,6,8,10,12,14,16,18,20,22,24,26,28,30,-1,-1,-1,-1,-1,-1,-1,-1,-1,-1,-1,-1,-1,-1,-1,-1],"split_conditions":[4E0,3E0,5E0,6.25E2,2.3E1,1.3E2,6E0,2.2E1,2.7E1,3E1,1.7E1,1.05E2,8E0,2.8E1,1.666E3,-1.9525433E-2,6.636853E-2,1.8663755E-2,8.07755E-2,1.3646485E-2,-8.912802E-2,1.549489E-1,2.1382917E-2,-1.2306375E-2,3.1818334E-2,-1.431506E-1,-8.202553E-4,-2.9328749E-2,-6.1223388E-2,-8.632392E-2,-1.3210855E-1],"split_indices":[11,11,11,13,5,1,11,4,1,4,7,1,10,1,13,0,0,0,0,0,0,0,0,0,0,0,0,0,0,0,0],"split_type":[0,0,0,0,0,0,0,0,0,0,0,0,0,0,0,0,0,0,0,0,0,0,0,0,0,0,0,0,0,0,0],"sum_hessian":[2.526E3,1.308E3,1.218E3,8.59E2,4.49E2,2.71E2,9.47E2,1.7E1,8.42E2,4.26E2,2.3E1,2.67E2,4E0,5.22E2,4.25E2,9E0,8E0,1E1,8.32E2,4.2E2,6E0,7E0,1.6E1,2.46E2,2.1E1,3E0,1E0,9.8E1,4.24E2,3.57E2,6.8E1],"tree_param":{"num_deleted":"0","num_feature":"14","num_nodes":"31","size_leaf_vector":"1"}},{"base_weights":[-2.1266652E-2,8.635493E-1,-1.4722701E0,1.5019962E0,1.1534815E-1,-1.1577258E0,-1.8660499E0,1.1968294E0,1.5759971E0,2.9244936E-1,-3.032668E-1,-5.9621435E-1,-1.2506326E0,-1.7169232E0,-2.3879716E0,6.517038E-2,-5.754731E-2,8.693882E-2,6.850942E-2,1.0517096E-2,6.0801864E-2,-2.4987834E-2,7.990226E-3,-5.3402215E-2,5.856413E-1,-7.895641E-2,-5.109909E-2,-1.13819756E-1,-7.476305E-2,-1.1146728E-1,-1.6364594E-1],"categories":[],"categories_nodes":[],"categories_segments":[],"categories_sizes":[],"default_left":[0,0,0,0,0,0,0,0,0,0,0,0,0,0,0,0,0,0,0,0,0,0,0,0,0,0,0,0,0,0,0],"id":45,"left_children":[1,3,5,7,9,11,13,15,17,19,21,23,25,27,29,-1,-1,-1,-1,-1,-1,-1,-1,-1,-1,-1,-1,-1,-1,-1,-1],"loss_changes":[3.2944006E3,7.6125916E2,1.1823242E2,1.7535034E1,5.4579544E1,2.7581665E1,2.936792E1,4.4538193E1,2.0700073E1,3.8950104E1,2.0006416E1,4.71324E2,3.3312683E1,3.851294E1,5.758484E0,0E0,0E0,0E0,0E0,0E0,0E0,0E0,0E0,0E0,0E0,0E0,0E0,0E0,0E0,0E0,0E0],"parents":[2147483647,0,0,1,1,2,2,3,3,4,4,5,5,6,6,7,7,8,8,9,9,10,10,11,11,12,12,13,13,14,14],"right_children":[2,4,6,8,10,12,14,16,18,20,22,24,26,28,30,-1,-1,-1,-1,-1,-1,-1,-1,-1,-1,-1,-1,-1,-1,-1,-1],"split_conditions":[5E0,3E0,6E0,1.2E1,2.4E1,1.2E1,1.3E1,1.333E3,1.5E1,2.3E1,3E3,1.4E1,8E3,1E3,6E0,6.517038E-2,-5.754731E-2,8.693882E-2,6.850942E-2,1.0517096E-2,6.0801864E-2,-2.4987834E-2,7.990226E-3,-5.3402215E-2,5.856413E-1,-7.895641E-2,-5.109909E-2,-1.13819756E-1,-7.476305E-2,-1.1146728E-1,-1.6364594E-1],"split_indices":[11,11,11,3,3,4,3,13,3,5,13,3,0,0,10,0,0,0,0,0,0,0,0,0,0,0,0,0,0,0,0],"split_type":[0,0,0,0,0,0,0,0,0,0,0,0,0,0,0,0,0,0,0,0,0,0,0,0,0,0,0,0,0,0,0],"sum_hessian":[2.564E3,1.593E3,9.71E2,8.59E2,7.34E2,5.42E2,4.29E2,1.71E2,6.88E2,5.16E2,2.18E2,7.8E1,4.64E2,3.37E2,9.2E1,1.64E2,7E0,3.8E2,3.08E2,4.75E2,4.1E1,1.53E2,6.5E1,7.6E1,2E0,1.88E2,2.76E2,9.3E1,2.44E2,8.1E1,1.1E1],"tree_param":{"num_deleted":"0","num_feature":"14","num_nodes":"31","size_leaf_vector":"1"}},{"base_weights":[4.388621E-2,1.0528026E0,-1.0692934E0,1.4675895E0,2.6584026E-1,-7.6513475E-1,-1.6902399E0,1.4212196E0,2.0840359E0,1.2928139E-1,7.9907835E-1,-2.9909635E-1,-1.0062907E0,-1.5413405E0,-2.3757136E0,7.32329E-2,1.556055E-2,1.5705812E-1,5.469619E-2,1.703592E-2,-1.35738375E-2,8.284142E-2,1.3108092E-2,-1.3192861E-2,-1.0887142E-1,-2.0165091E-2,-5.619174E-2,-1.1640435E-1,-7.074567E-2,-1.0945926E-1,-1.5054107E-1],"categories":[],"categories_nodes":[],"categories_segments":[],"categories_sizes":[],"default_left":[0,0,0,0,0,0,0,0,0,0,0,0,0,0,0,0,0,0,0,0,0,0,0,0,0,0,0,0,0,0,0],"id":46,"left_children":[1,3,5,7,9,11,13,15,17,19,21,23,25,27,29,-1,-1,-1,-1,-1,-1,-1,-1,-1,-1,-1,-1,-1,-1,-1,-1],"loss_changes":[2.8583052E3,4.3538293E2,2.2723486E2,2.2020996E1,3.353879E1,9.118286E1,3.6858643E1,3.8889038E1,5.8317566E1,3.1359749E1,4.2856415E1,1.789269E1,3.753717E1,2.9430359E1,1.5828857E0,0E0,0E0,0E0,0E0,0E0,0E0,0E0,0E0,0E0,0E0,0E0,0E0,0E0,0E0,0E0,0E0],"parents":[2147483647,0,0,1,1,2,2,3,3,4,4,5,5,6,6,7,7,8,8,9,9,10,10,11,11,12,12,13,13,14,14],"right_children":[2,4,6,8,10,12,14,16,18,20,22,24,26,28,30,-1,-1,-1,-1,-1,-1,-1,-1,-1,-1,-1,-1,-1,-1,-1,-1],"split_conditions":[4E0,3E0,6E0,2.9E1,1.7E1,5E0,2.8E1,7E0,2.3E1,4E1,1.9E1,1.3E2,2.8E1,8E0,6E0,7.32329E-2,1.556055E-2,1.5705812E-1,5.469619E-2,1.703592E-2,-1.35738375E-2,8.284142E-2,1.3108092E-2,-1.3192861E-2,-1.0887142E-1,-2.0165091E-2,-5.619174E-2,-1.1640435E-1,-7.074567E-2,-1.0945926E-1,-1.5054107E-1],"split_indices":[11,11,11,4,3,11,1,9,5,1,5,1,1,2,10,0,0,0,0,0,0,0,0,0,0,0,0,0,0,0,0],"split_type":[0,0,0,0,0,0,0,0,0,0,0,0,0,0,0,0,0,0,0,0,0,0,0,0,0,0,0,0,0,0,0],"sum_hessian":[2.543E3,1.334E3,1.209E3,8.73E2,4.61E2,8.13E2,3.96E2,8.15E2,5.8E1,3.68E2,9.3E1,2.78E2,5.35E2,3.28E2,6.8E1,7.84E2,3.1E1,2.7E1,3.1E1,2.41E2,1.27E2,3.5E1,5.8E1,2.74E2,4E0,8.8E1,4.47E2,4.3E1,2.85E2,5.6E1,1.2E1],"tree_param":{"num_deleted":"0","num_feature":"14","num_nodes":"31","size_leaf_vector":"1"}},{"base_weights":[-6.886297E-3,3.8540852E-1,-9.075122E-1,-1.2555343E0,9.408572E-1,-1.1793394E0,-8.109879E-1,-1.8773608E0,-1.0298965E0,9.183992E-1,1.8691999E0,-1.5972039E0,-1.0733879E0,-7.2082925E-1,-1.2008209E0,-1.9861793E-2,-9.43348E-2,-4.041055E-2,-6.453962E-2,4.9406856E-2,3.195664E-2,1.3742189E-1,3.3401974E-2,-8.890753E-2,-2.3662855E-3,4.0774595E-2,-5.6957822E-2,-4.1524075E-2,-5.721172E-4,-1.3206999E-1,-4.9326878E-2],"categories":[],"categories_nodes":[],"categories_segments":[],"categories_sizes":[],"default_left":[0,0,0,0,0,0,0,0,0,0,0,0,0,0,0,0,0,0,0,0,0,0,0,0,0,0,0,0,0,0,0],"id":47,"left_children":[1,3,5,7,9,11,13,15,17,19,21,23,25,27,29,-1,-1,-1,-1,-1,-1,-1,-1,-1,-1,-1,-1,-1,-1,-1,-1],"loss_changes":[8.896332E2,1.5998813E3,1.9089294E1,6.0363037E1,2.5615967E1,7.051697E0,1.9062653E1,8.6712646E-1,1.7927246E1,2.4335938E1,2.9847122E1,1.0572777E1,2.092981E1,3.600534E1,2.9806824E1,0E0,0E0,0E0,0E0,0E0,0E0,0E0,0E0,0E0,0E0,0E0,0E0,0E0,0E0,0E0,0E0],"parents":[2147483647,0,0,1,1,2,2,3,3,4,4,5,5,6,6,7,7,8,8,9,9,10,10,11,11,12,12,13,13,14,14],"right_children":[2,4,6,8,10,12,14,16,18,20,22,24,26,28,30,-1,-1,-1,-1,-1,-1,-1,-1,-1,-1,-1,-1,-1,-1,-1,-1],"split_conditions":[6E3,2E3,6.3E1,1E3,5.7E1,7E0,5.6E1,1.2E1,1.4E1,1.9E1,1.7E1,2.9E1,1E1,1.7E1,5.7E1,-1.9861793E-2,-9.43348E-2,-4.041055E-2,-6.453962E-2,4.9406856E-2,3.195664E-2,1.3742189E-1,3.3401974E-2,-8.890753E-2,-2.3662855E-3,4.0774595E-2,-5.6957822E-2,-4.1524075E-2,-5.721172E-4,-1.3206999E-1,-4.9326878E-2],"split_indices":[0,0,1,0,1,9,2,1,2,5,7,4,8,8,2,0,0,0,0,0,0,0,0,0,0,0,0,0,0,0,0],"split_type":[0,0,0,0,0,0,0,0,0,0,0,0,0,0,0,0,0,0,0,0,0,0,0,0,0,0,0,0,0,0,0],"sum_hessian":[2.516E3,1.753E3,7.63E2,4.43E2,1.31E3,1.97E2,5.66E2,1.16E2,3.27E2,1.281E3,2.9E1,3.7E1,1.6E2,4.62E2,1.04E2,1E0,1.15E2,1.79E2,1.48E2,1.023E3,2.58E2,1.6E1,1.3E1,3.3E1,4E0,5E0,1.55E2,4E2,6.2E1,1.2E1,9.2E1],"tree_param":{"num_deleted":"0","num_feature":"14","num_nodes":"31","size_leaf_vector":"1"}},{"base_weights":[-1.2770122E-2,9.3198645E-1,-1.0188439E0,1.3359921E0,2.0468321E-1,-6.8491817E-1,-1.6440262E0,2.6904469E0,1.3145938E0,1.6141963E-1,1.2676908E0,-2.4162678E-1,-9.11161E-1,-1.5002016E0,-2.2419214E0,1.622345E-1,6.327843E-2,6.761095E-2,3.398576E-2,2.6591903E-2,-4.6165945E-4,-6.37686E-2,9.306641E-2,-8.87343E-3,-6.602424E-2,-1.5692836E-2,-5.176964E-2,-1.120829E-1,-6.919912E-2,-5.6710977E-2,-1.16630115E-1],"categories":[],"categories_nodes":[],"categories_segments":[],"categories_sizes":[],"default_left":[0,0,0,0,0,0,0,0,0,0,0,0,0,0,0,0,0,0,0,0,0,0,0,0,0,0,0,0,0,0,0],"id":48,"left_children":[1,3,5,7,9,11,13,15,17,19,21,23,25,27,29,-1,-1,-1,-1,-1,-1,-1,-1,-1,-1,-1,-1,-1,-1,-1,-1],"loss_changes":[2.3885925E3,3.8053625E2,2.5294019E2,2.0605957E1,2.1134502E1,7.9511566E1,3.301123E1,5.370369E0,1.8716553E1,2.8261097E1,2.9547712E1,1.8454403E1,3.870645E1,2.6540588E1,5.3900757E0,0E0,0E0,0E0,0E0,0E0,0E0,0E0,0E0,0E0,0E0,0E0,0E0,0E0,0E0,0E0,0E0],"parents":[2147483647,0,0,1,1,2,2,3,3,4,4,5,5,6,6,7,7,8,8,9,9,10,10,11,11,12,12,13,13,14,14],"right_children":[2,4,6,8,10,12,14,16,18,20,22,24,26,28,30,-1,-1,-1,-1,-1,-1,-1,-1,-1,-1,-1,-1,-1,-1,-1,-1],"split_conditions":[4E0,3E0,6E0,1.5E1,6E0,5E0,9E0,2.8E1,1.6E3,1.3E1,1.2E1,6E0,2.8E1,8E0,1.428E3,1.622345E-1,6.327843E-2,6.761095E-2,3.398576E-2,2.6591903E-2,-4.6165945E-4,-6.37686E-2,9.306641E-2,-8.87343E-3,-6.602424E-2,-1.5692836E-2,-5.176964E-2,-1.120829E-1,-6.919912E-2,-5.6710977E-2,-1.16630115E-1],"split_indices":[11,11,11,2,12,11,6,1,13,3,3,12,1,2,13,0,0,0,0,0,0,0,0,0,0,0,0,0,0,0,0],"split_type":[0,0,0,0,0,0,0,0,0,0,0,0,0,0,0,0,0,0,0,0,0,0,0,0,0,0,0,0,0,0,0],"sum_hessian":[2.511E3,1.295E3,1.216E3,8.32E2,4.63E2,7.94E2,4.22E2,1.1E1,8.21E2,4.46E2,1.7E1,2.69E2,5.25E2,3.43E2,7.9E1,7E0,4E0,7.74E2,4.7E1,1.4E2,3.06E2,3E0,1.4E1,2.55E2,1.4E1,9.1E1,4.34E2,4.4E1,2.99E2,7E0,7.2E1],"tree_param":{"num_deleted":"0","num_feature":"14","num_nodes":"31","size_leaf_vector":"1"}},{"base_weights":[4.05636E-3,3.537249E-1,-7.934621E-1,-1.0645496E0,8.5643584E-1,-1.2384878E0,-6.992331E-1,-1.7260047E0,-8.791083E-1,9.8248667E-1,7.057205E-1,-1.2769233E0,9.779673E-2,-9.536234E-1,-5.805088E-1,-6.8991594E-2,-9.564527E-2,-3.9700367E-2,-7.671618E-2,3.6053803E-2,6.710141E-2,-1.00249134E-1,3.8212586E-2,-9.143093E-2,-5.155946E-2,-6.5588646E-2,-2.5602484E-2,5.865666E-3,-3.378209E-2],"categories":[],"categories_nodes":[],"categories_segments":[],"categories_sizes":[],"default_left":[0,0,0,0,0,0,0,0,0,0,0,0,0,0,0,0,0,0,0,0,0,0,0,0,0,0,0,0,0],"id":49,"left_children":[1,3,5,7,9,11,13,15,17,19,21,23,-1,25,27,-1,-1,-1,-1,-1,-1,-1,-1,-1,-1,-1,-1,-1,-1],"loss_changes":[7.1362274E2,1.2693069E3,3.1842773E1,5.564276E1,2.4269714E1,1.907277E1,1.8957092E1,3.8952026E0,1.9189728E1,6.6045715E1,9.704614E1,1.6280777E1,0E0,3.1590775E1,2.948822E1,0E0,0E0,0E0,0E0,0E0,0E0,0E0,0E0,0E0,0E0,0E0,0E0,0E0,0E0],"parents":[2147483647,0,0,1,1,2,2,3,3,4,4,5,5,6,6,7,7,8,8,9,9,10,10,11,11,13,13,14,14],"right_children":[2,4,6,8,10,12,14,16,18,20,22,24,-1,26,28,-1,-1,-1,-1,-1,-1,-1,-1,-1,-1,-1,-1,-1,-1],"split_conditions":[6E3,2E3,2.9E1,1E3,1.3E1,1.8E1,4E0,8E2,7E0,1.3E1,2E1,7E0,9.779673E-2,2.1E1,3.1E1,-6.8991594E-2,-9.564527E-2,-3.9700367E-2,-7.671618E-2,3.6053803E-2,6.710141E-2,-1.00249134E-1,3.8212586E-2,-9.143093E-2,-5.155946E-2,-6.5588646E-2,-2.5602484E-2,5.865666E-3,-3.378209E-2],"split_indices":[0,0,4,0,6,7,12,0,7,5,4,9,0,7,4,0,0,0,0,0,0,0,0,0,0,0,0,0,0],"split_type":[0,0,0,0,0,0,0,0,0,0,0,0,0,0,0,0,0,0,0,0,0,0,0,0,0,0,0,0,0],"sum_hessian":[2.557E3,1.778E3,7.79E2,4.65E2,1.313E3,1.34E2,6.45E2,1E2,3.65E2,7.12E2,6.01E2,1.33E2,1E0,2.03E2,4.42E2,3.8E1,6.2E1,3.25E2,4E1,4.14E2,2.98E2,1.2E1,5.89E2,3.9E1,9.4E1,1.11E2,9.2E1,5.3E1,3.89E2],"tree_param":{"num_deleted":"0","num_feature":"14","num_nodes":"29","size_leaf_vector":"1"}},{"base_weights":[-1.1987442E-3,1.2153938E0,-6.354581E-1,1.1381481E0,1.828647E0,-8.821776E-3,-1.1174246E0,1.1571258E0,-1.9665031E0,2.0361142E0,7.691711E-1,1.888721E-1,-1.9730905E-1,-8.5531634E-1,-1.4444138E0,3.1654902E-3,5.987201E-2,5.2847292E-2,-1.493301E-1,6.108889E-2,1.24656714E-1,1.3075137E-1,-3.9221555E-2,5.305206E-3,8.524945E-2,-1.0686463E-1,-7.3993686E-3,-1.9211939E-2,-4.9084526E-2,-6.5255255E-2,-1.0112112E-1],"categories":[],"categories_nodes":[],"categories_segments":[],"categories_sizes":[],"default_left":[0,0,0,0,0,0,0,0,0,0,0,0,0,0,0,0,0,0,0,0,0,0,0,0,0,0,0,0,0,0,0],"id":50,"left_children":[1,3,5,7,9,11,13,15,17,19,21,23,25,27,29,-1,-1,-1,-1,-1,-1,-1,-1,-1,-1,-1,-1,-1,-1,-1,-1],"loss_changes":[1.9252306E3,3.8421143E1,4.952992E2,4.7171875E1,1.9095703E1,2.6642893E1,7.821448E1,3.3349243E1,1.8577755E1,2.5983032E1,5.0802658E1,4.3613686E1,3.4703777E1,3.0400848E1,3.0454895E1,0E0,0E0,0E0,0E0,0E0,0E0,0E0,0E0,0E0,0E0,0E0,0E0,0E0,0E0,0E0,0E0],"parents":[2147483647,0,0,1,1,2,2,3,3,4,4,5,5,6,6,7,7,8,8,9,9,10,10,11,11,12,12,13,13,14,14],"right_children":[2,4,6,8,10,12,14,16,18,20,22,24,26,28,30,-1,-1,-1,-1,-1,-1,-1,-1,-1,-1,-1,-1,-1,-1,-1,-1],"split_conditions":[3E0,3.5E1,5E0,1.2E1,1.3E1,2.4E1,6E0,2E0,4E0,1.1E1,1.6E1,1.5E1,4.4E1,1.4E1,9E0,3.1654902E-3,5.987201E-2,5.2847292E-2,-1.493301E-1,6.108889E-2,1.24656714E-1,1.3075137E-1,-3.9221555E-2,5.305206E-3,8.524945E-2,-1.0686463E-1,-7.3993686E-3,-1.9211939E-2,-4.9084526E-2,-6.5255255E-2,-1.0112112E-1],"split_indices":[11,2,11,8,8,4,11,10,12,8,3,6,1,7,6,0,0,0,0,0,0,0,0,0,0,0,0,0,0,0,0],"split_type":[0,0,0,0,0,0,0,0,0,0,0,0,0,0,0,0,0,0,0,0,0,0,0,0,0,0,0,0,0,0,0],"sum_hessian":[2.493E3,8.54E2,1.639E3,7.61E2,9.3E1,7.13E2,9.26E2,7.57E2,4E0,7.7E1,1.6E1,3.48E2,3.65E2,5.16E2,4.1E2,2.7E1,7.3E2,1E0,3E0,2.9E1,4.8E1,7E0,9E0,3.31E2,1.7E1,8E0,3.57E2,1.1E2,4.06E2,3.33E2,7.7E1],"tree_param":{"num_deleted":"0","num_feature":"14","num_nodes":"31","size_leaf_vector":"1"}},{"base_weights":[-2.4832211E-2,8.2307E-1,-9.2051256E-1,1.158681E0,1.8091984E-1,-6.5413254E-1,-1.4477789E0,1.1002771E0,2.0326748E0,2.8286296E-1,-4.4170135E-1,-2.408553E-1,-8.735246E-1,-1.377519E0,-2.3233488E0,6.1315145E-2,3.918582E-2,-7.2238095E-2,1.10033385E-1,4.061883E-3,4.4662543E-2,-4.1577235E-2,4.306169E-2,-1.6940309E-2,1.5056111E-2,-1.0010755E-1,-4.0813126E-2,-9.345909E-2,-6.5316014E-2,-4.1408103E-2,-1.3386953E-1],"categories":[],"categories_nodes":[],"categories_segments":[],"categories_sizes":[],"default_left":[0,0,0,0,0,0,0,0,0,0,0,0,0,0,0,0,0,0,0,0,0,0,0,0,0,0,0,0,0,0,0],"id":51,"left_children":[1,3,5,7,9,11,13,15,17,19,21,23,25,27,29,-1,-1,-1,-1,-1,-1,-1,-1,-1,-1,-1,-1,-1,-1,-1,-1],"loss_changes":[1.9115322E3,2.7844836E2,1.7096777E2,4.110034E1,2.8369957E1,7.3685455E1,2.2021667E1,3.0875061E1,3.3557022E1,4.706311E1,3.271641E1,1.5178776E1,3.274759E1,1.0930481E1,1.3134079E1,0E0,0E0,0E0,0E0,0E0,0E0,0E0,0E0,0E0,0E0,0E0,0E0,0E0,0E0,0E0,0E0],"parents":[2147483647,0,0,1,1,2,2,3,3,4,4,5,5,6,6,7,7,8,8,9,9,10,10,11,11,12,12,13,13,14,14],"right_children":[2,4,6,8,10,12,14,16,18,20,22,24,26,28,30,-1,-1,-1,-1,-1,-1,-1,-1,-1,-1,-1,-1,-1,-1,-1,-1],"split_conditions":[4E0,3E0,6E0,2.9E1,5E0,5E0,5E0,2.9E1,7.14E2,1.3E1,3.1E1,2.4E1,1E3,3E0,3.7E1,6.1315145E-2,3.918582E-2,-7.2238095E-2,1.10033385E-1,4.061883E-3,4.4662543E-2,-4.1577235E-2,4.306169E-2,-1.6940309E-2,1.5056111E-2,-1.0010755E-1,-4.0813126E-2,-9.345909E-2,-6.5316014E-2,-4.1408103E-2,-1.3386953E-1],"split_indices":[11,11,11,4,10,11,10,2,13,7,4,7,0,12,4,0,0,0,0,0,0,0,0,0,0,0,0,0,0,0,0],"split_type":[0,0,0,0,0,0,0,0,0,0,0,0,0,0,0,0,0,0,0,0,0,0,0,0,0,0,0,0,0,0,0],"sum_hessian":[2.515E3,1.292E3,1.223E3,8.48E2,4.44E2,8.14E2,4.09E2,7.97E2,5.1E1,3.82E2,6.2E1,2.83E2,5.31E2,3.81E2,2.8E1,5.68E2,2.29E2,2E0,4.9E1,2.88E2,9.4E1,4.8E1,1.4E1,2.4E2,4.3E1,2.4E1,5.07E2,4.5E1,3.36E2,6E0,2.2E1],"tree_param":{"num_deleted":"0","num_feature":"14","num_nodes":"31","size_leaf_vector":"1"}},{"base_weights":[1.0561269E-2,6.2420005E-1,-1.0241878E0,1.0721052E0,9.7191624E-2,-7.658763E-1,-1.3572291E0,1.0016738E0,1.4430671E0,3.973655E-1,6.26751E-3,-1.5045999E-1,-8.8973475E-1,-1.2368054E0,-2.0350733E0,5.3072598E-2,-2.5787136E-2,-6.3732795E-2,7.575176E-2,1.4778547E-2,9.163179E-2,-4.2591296E-2,2.7413506E-3,-2.7193515E-2,5.7198644E-1,-6.740902E-2,-3.6001198E-2,-8.647304E-2,-5.419308E-2,-9.262615E-2,-1.4318447E-1],"categories":[],"categories_nodes":[],"categories_segments":[],"categories_sizes":[],"default_left":[0,0,0,0,0,0,0,0,0,0,0,0,0,0,0,0,0,0,0,0,0,0,0,0,0,0,0,0,0,0,0],"id":52,"left_children":[1,3,5,7,9,11,13,15,17,19,21,23,25,27,29,-1,-1,-1,-1,-1,-1,-1,-1,-1,-1,-1,-1,-1,-1,-1,-1],"loss_changes":[1.598204E3,3.7285437E2,7.956915E1,2.0867249E1,1.9839554E1,4.0265106E1,3.0787476E1,6.594812E1,2.8140137E1,2.4149685E1,2.3339441E1,4.165947E2,3.3340515E1,2.442218E1,3.7707977E0,0E0,0E0,0E0,0E0,0E0,0E0,0E0,0E0,0E0,0E0,0E0,0E0,0E0,0E0,0E0,0E0],"parents":[2147483647,0,0,1,1,2,2,3,3,4,4,5,5,6,6,7,7,8,8,9,9,10,10,11,11,12,12,13,13,14,14],"right_children":[2,4,6,8,10,12,14,16,18,20,22,24,26,28,30,-1,-1,-1,-1,-1,-1,-1,-1,-1,-1,-1,-1,-1,-1,-1,-1],"split_conditions":[5E0,3E0,6E0,5E1,1.3E1,2.8E1,2.8E1,1.1E1,1.4E1,4.4E1,8E0,1.4E1,1.7E1,1E3,4.6E1,5.3072598E-2,-2.5787136E-2,-6.3732795E-2,7.575176E-2,1.4778547E-2,9.163179E-2,-4.2591296E-2,2.7413506E-3,-2.7193515E-2,5.7198644E-1,-6.740902E-2,-3.6001198E-2,-8.647304E-2,-5.419308E-2,-9.262615E-2,-1.4318447E-1],"split_indices":[11,11,11,1,3,1,4,8,6,1,6,3,7,0,3,0,0,0,0,0,0,0,0,0,0,0,0,0,0,0,0],"split_type":[0,0,0,0,0,0,0,0,0,0,0,0,0,0,0,0,0,0,0,0,0,0,0,0,0,0,0,0,0,0,0],"sum_hessian":[2.515E3,1.579E3,9.36E2,8.53E2,7.26E2,5.29E2,4.07E2,7.2E2,1.33E2,1.68E2,5.58E2,8.9E1,4.4E2,3.48E2,5.9E1,6.93E2,2.7E1,3E0,1.3E2,1.58E2,1E1,2.9E1,5.29E2,8.7E1,2E0,1.17E2,3.23E2,8E1,2.68E2,5.1E1,8E0],"tree_param":{"num_deleted":"0","num_feature":"14","num_nodes":"31","size_leaf_vector":"1"}},{"base_weights":[-2.0307594E-3,7.199915E-1,-8.0301315E-1,1.0081612E0,1.7078595E-1,-5.651881E-1,-1.2555246E0,1.1508365E0,8.355752E-1,4.7995383E-1,2.235457E-3,-2.1102569E-1,-7.528013E-1,-1.1234084E0,-1.7864308E0,4.809423E-2,9.3224086E-2,3.0029068E-2,6.395369E-2,-1.2027116E-1,2.5630653E-2,-1.1432485E-2,2.3665594E-2,-1.5581036E-2,1.3067791E-2,-7.294999E-2,-3.4371227E-2,-7.714287E-2,-4.8386138E-2,-9.73512E-2,-4.3940242E-2],"categories":[],"categories_nodes":[],"categories_segments":[],"categories_sizes":[],"default_left":[0,0,0,0,0,0,0,0,0,0,0,0,0,0,0,0,0,0,0,0,0,0,0,0,0,0,0,0,0,0,0],"id":53,"left_children":[1,3,5,7,9,11,13,15,17,19,21,23,25,27,29,-1,-1,-1,-1,-1,-1,-1,-1,-1,-1,-1,-1,-1,-1,-1,-1],"loss_changes":[1.4724207E3,2.1174377E2,1.2918604E2,2.065802E1,2.4073929E1,5.25325E1,2.7101685E1,6.2662354E1,4.1023834E1,1.6593239E1,3.2737587E1,1.3196752E1,2.2912537E1,2.0383179E1,1.0095398E1,0E0,0E0,0E0,0E0,0E0,0E0,0E0,0E0,0E0,0E0,0E0,0E0,0E0,0E0,0E0,0E0],"parents":[2147483647,0,0,1,1,2,2,3,3,4,4,5,5,6,6,7,7,8,8,9,9,10,10,11,11,12,12,13,13,14,14],"right_children":[2,4,6,8,10,12,14,16,18,20,22,24,26,28,30,-1,-1,-1,-1,-1,-1,-1,-1,-1,-1,-1,-1,-1,-1,-1,-1],"split_conditions":[4E0,3E0,6E0,2.7E1,3.6E1,5E0,2.8E1,3E3,5E1,6E0,1.166E3,1.7E1,6E0,1E3,3.333E3,4.809423E-2,9.3224086E-2,3.0029068E-2,6.395369E-2,-1.2027116E-1,2.5630653E-2,-1.1432485E-2,2.3665594E-2,-1.5581036E-2,1.3067791E-2,-7.294999E-2,-3.4371227E-2,-7.714287E-2,-4.8386138E-2,-9.73512E-2,-4.3940242E-2],"split_indices":[11,11,11,2,1,11,1,0,1,6,13,8,5,0,13,0,0,0,0,0,0,0,0,0,0,0,0,0,0,0,0],"split_type":[0,0,0,0,0,0,0,0,0,0,0,0,0,0,0,0,0,0,0,0,0,0,0,0,0,0,0,0,0,0,0],"sum_hessian":[2.544E3,1.338E3,1.206E3,8.77E2,4.61E2,7.92E2,4.14E2,4.77E2,4E2,1.62E2,2.99E2,2.75E2,5.17E2,3.34E2,8E1,3.79E2,9.8E1,2.63E2,1.37E2,1E0,1.61E2,2.01E2,9.8E1,2.27E2,4.8E1,4.2E1,4.75E2,8.8E1,2.46E2,6.7E1,1.3E1],"tree_param":{"num_deleted":"0","num_feature":"14","num_nodes":"31","size_leaf_vector":"1"}},{"base_weights":[-1.6011221E-2,2.5976932E-1,-6.671996E-1,-8.3271843E-1,6.471199E-1,-1.5415778E0,-6.311551E-1,